tree
version=v4
num_class=3
num_tree_per_iteration=3
label_index=0
max_feature_idx=3
objective=multiclass num_class:3
feature_names=Column_0 Column_1 Column_2 Column_3
feature_infos=[11.033094842787397:17.990961940195767] [0:1] [0.026018849765790941:119.73574830823814] [1:49]
tree_sizes=1040 1763 1037 1816 1768 2008 1920 1877 1905 1803 1876 1904 1813 1880 1907 1911 1878 1904 1808 1780 1793 1912 1983 1906 1701 1886 2016 1809 1877 1904 1804 1985 1809 1805 1677 1802 1603 1782 1699 1596 1791 1697 1703 1997 1812 1796 1879 1911 1799 1882 1922 1802 2107 1920 2011 1984 2028 2014 1898 2023 2021 1999 1917 1917 2009 1811 1919 2009 1811 1919 2101 1923 1921 2111 1714 1712 1785 2119 1710 1681 2018 1924 1475 2014 1719 1897 1929 1915 2002 1927 2020 1675 1928 2018 1676 1933 2026 2093 1936 2144 2095 1938 1934 1797 2016 2033 2105 2026 2338 2004 2114 2140 1897 2031 2446 2215 2040

Tree=0
num_leaves=9
num_cat=0
split_feature=0 2 0 2 1 0 3 0
split_gain=122.864 67.5418 12.9372 6.99172 2.29416 1.17374 0.796583 7.10543e-15
threshold=14.168041557297334 50.116001621641821 16.013129672387397 21.420548905659885 1.0000000180025095e-35 13.931079001358484 24.500000000000004 12.549422726207164
decision_type=2 2 2 2 2 2 2 2
left_child=5 2 3 -2 -5 7 -6 -1
right_child=1 -3 -4 4 6 -7 -8 -9
leaf_value=-1.3053808676819094 -1.001920780347503 -1.3053808676819094 -0.98674777598078256 -1.1566854248880503 -1.1142010126612334 -1.2619309006317558 -1.0664060489060643 -1.3053808676819094
leaf_weight=26.676450818777084 6.5906525552272823 13.495145708322523 18.516595274209976 9.4152179360389709 7.8460149466991425 6.9044931530952445 6.276811957359314 35.77782815694809
leaf_count=85 21 43 59 30 25 22 20 114
internal_value=-1.2104 -1.10744 -1.05253 -1.09296 -1.11845 -1.30106 -1.09296 -1.30538
internal_weight=0 62.1404 48.6453 30.1287 23.538 69.3588 14.1228 62.4543
internal_count=419 198 155 96 75 221 45 199
is_linear=0
shrinkage=1


Tree=1
num_leaves=16
num_cat=0
split_feature=2 0 0 2 2 0 3 0 2 1 2 2 2 0 0
split_gain=32.7137 40.6186 14.7152 17.1079 10.8604 11.0329 4.28797 3.31939 10.2394 2.35711 1.07712 0.890309 0.103164 0.0824672 3.55271e-15
threshold=79.6151532545408 16.013129672387397 12.092053819174401 20.203644210312653 54.649576392135508 13.643061943111446 20.500000000000004 14.242477736460952 41.054912993562056 1.0000000180025095e-35 47.756096995485237 39.086627158514112 90.516375348688925 14.409970616763184 12.810942722994348
decision_type=2 2 2 2 2 2 2 2 2 2 2 2 2 2 2
left_child=1 2 -1 -4 7 6 -6 8 -5 -9 -10 -11 -2 -7 -14
right_child=12 -3 3 4 5 13 -8 9 10 11 -12 -13 14 -15 -16
leaf_value=-1.0590850068652691 -1.0590850068652689 -1.0732222385482377 -1.0590850068652691 -0.82077167278093865 -0.96258303407283008 -0.80461483657183153 -0.86378176917092286 -0.91300027947459195 -0.92511790663142224 -0.99243805750270198 -0.97897402732844607 -0.94598715340151895 -1.0732222385482377 -0.79047760488886265 -1.0732222385482377
leaf_weight=7.0735204219818106 7.0735204219818142 20.866885244846344 7.0735204219818106 9.9029285907745379 8.134548485279085 7.0735204219818142 9.5492525696754438 10.610280632972719 7.4271964430809003 9.9029285907745379 7.4271964430809021 7.0735204219818106 9.5492525696754473 9.9029285907745344 9.5492525696754438
leaf_count=20 20 59 20 28 23 20 27 30 21 28 21 20 27 28 27
internal_value=-0.965562 -0.946192 -0.919987 -0.909528 -0.897369 -0.853951 -0.90923 -0.926119 -0.899536 -0.949975 -0.952046 -0.973084 -1.0694 -0.796368 -1.07322
internal_weight=0 122.018 101.151 94.0778 87.0043 34.6603 17.6838 52.3441 24.7573 27.5867 14.8544 16.9764 26.172 16.9764 19.0985
internal_count=419 345 286 266 246 98 50 148 70 78 42 48 74 48 54
is_linear=0
shrinkage=1


Tree=2
num_leaves=9
num_cat=0
split_feature=0 2 0 2 1 2 2 0
split_gain=136.326 41.3479 16.6958 8.88809 5.25669 3.72773 1.22316 1.42109e-14
threshold=14.023735362560275 79.6151532545408 12.092053819174401 41.054912993562056 1.0000000180025095e-35 55.039812828918464 58.669221009823069 13.092424690992745
decision_type=2 2 2 2 2 2 2 2
left_child=1 2 -1 -4 5 -5 -6 -3
right_child=-2 7 3 4 6 -7 -8 -9
leaf_value=-0.94353970261876297 -1.2340408510277634 -0.9282501684919735 -1.2194793899546306 -1.0010574738576379 -1.1117245780134475 -1.0942508247256879 -1.1728827145206053 -0.9282501684919735
leaf_weight=6.5404218435287467 68.347408264875412 16.351054608821872 6.867442935705184 6.8674429357051876 6.5404218435287493 11.445738226175306 6.5404218435287476 7.5214851200580588
leaf_count=20 209 50 21 21 20 35 20 23
internal_value=-1.13583 -1.03455 -1.09119 -1.11643 -1.09389 -1.0593 -1.1423 -0.92825
internal_weight=0 68.6744 44.8019 38.2615 31.394 18.3132 13.0808 23.8725
internal_count=419 210 137 117 96 56 40 73
is_linear=0
shrinkage=1


Tree=3
num_leaves=16
num_cat=0
split_feature=0 2 0 2 1 0 3 1 2 2 2 1 3 0 3
split_gain=99.7548 50.723 8.01924 4.51381 1.57009 1.15748 0.600106 0.000286313 0.000146208 0.000130754 8.69308e-05 3.89205e-05 2.84209e-05 2.76697e-05 2.14907e-05
threshold=14.168041557297334 50.116001621641821 16.013129672387397 21.420548905659885 1.0000000180025095e-35 13.931079001358484 24.500000000000004 1.0000000180025095e-35 76.061279855275259 74.727801917885671 47.756096995485237 1.0000000180025095e-35 19.500000000000004 12.689820273217125 18.500000000000004
decision_type=2 2 2 2 2 2 2 2 2 2 2 2 2 2 2
left_child=5 2 3 -2 -5 7 -6 9 10 12 -9 -3 -1 -14 -11
right_child=1 11 -4 4 6 -7 -8 8 -10 14 -12 -13 13 -15 -16
leaf_value=-0.091056606206337973 0.16899224190988238 -0.091160410217796403 0.17987138475643363 0.04802962704560753 0.081691628261928981 -0.047149295144503667 0.12189376428384491 -0.091355664244767432 -0.091135566141532731 -0.091409397466383269 -0.091833040809030916 -0.091510513826981499 -0.090946723534366114 -0.090656218807345756 -0.091168399526584329
leaf_weight=5.8806786835193661 7.3001358211040523 6.4828325510025007 20.643929868936539 9.6596152186393738 8.282665550708769 6.6278837621211997 6.7300587892532358 5.9163314104080262 7.6596456766128531 6.2178836464881888 10.738183647394179 6.2236544489860535 6.1638188958168012 7.0045680701732635 9.1382201313972455
leaf_count=20 21 22 59 30 25 22 20 20 26 21 36 21 21 24 31
internal_value=0 0.0879835 0.131287 0.0999169 0.0794787 -0.0867631 0.0997139 -0.0912345 -0.0914972 -0.0910489 -0.0916635 -0.0913319 -0.0908738 -0.0907922 -0.091266
internal_weight=0 65.3229 52.6164 31.9725 24.6723 65.3472 15.0127 58.7193 24.3142 34.4052 16.6545 12.7065 19.0491 13.1684 15.3561
internal_count=419 198 155 96 75 221 45 199 82 117 56 43 65 45 52
is_linear=0
shrinkage=0.1


Tree=4
num_leaves=16
num_cat=0
split_feature=2 0 2 0 2 0 3 0 2 1 2 0 3 0 2
split_gain=27.1333 33.2787 11.8036 13.5693 8.15751 8.36022 3.07625 2.56397 7.58748 1.85412 0.926269 0.754559 0.273686 0.105257 4.94363e-05
threshold=79.6151532545408 16.013129672387397 20.203644210312653 12.092053819174401 54.649576392135508 13.524323169454936 20.500000000000004 14.242477736460952 41.054912993562056 1.0000000180025095e-35 47.756096995485237 14.945427805266403 20.500000000000004 13.275095926775391 92.941673468448016
decision_type=2 2 2 2 2 2 2 2 2 2 2 2 2 2 2
left_child=1 2 -1 -4 7 6 -6 8 -5 -9 -10 -11 -7 14 -2
right_child=13 -3 3 4 5 12 -8 9 10 11 -12 -13 -14 -15 -16
leaf_value=-0.087035022326130668 -0.101216660532039 -0.10099960002893747 -0.086912967642605615 0.12394955005652666 -0.0026032425068267234 0.12723421617251915 0.083912026041139107 0.04638145641015267 0.037191903911769693 0.015298635288364476 -0.012671104614960913 -0.026975420078801545 0.15158090190842277 -0.086369766638446685 -0.10087527018643508
leaf_weight=6.7795014381408683 6.7447535395622316 19.857457369565964 6.7730218172073355 10.326132893562319 7.4948422908782986 7.7359373271465328 9.1002514958381635 10.796780645847322 7.4983416199684125 8.1283454298973101 7.4041032493114471 8.7862935662269575 11.452434837818144 6.7391419410705558 11.42996299266815
leaf_count=20 20 59 20 28 21 21 25 30 21 23 21 25 31 20 34
internal_value=0 0.0174656 0.0404663 0.0495178 0.0599328 0.0968144 0.0448391 0.0350036 0.0580682 0.0140054 0.0124181 -0.00666058 0.141765 -0.097044 -0.101002
internal_weight=0 122.133 102.276 95.4965 88.7235 35.7835 16.5951 52.94 25.2286 27.7114 14.9024 16.9146 19.1884 24.9139 18.1747
internal_count=419 345 286 266 246 98 46 148 70 78 42 48 52 74 54
is_linear=0
shrinkage=0.1


Tree=5
num_leaves=18
num_cat=0
split_feature=0 2 2 0 1 2 0 2 2 2 2 2 2 0 3 0 3
split_gain=111.463 28.28 13.2294 8.28974 5.41988 3.91535 1.35305 0.00048617 8.77951e-05 0.000231907 4.88353e-05 2.48184e-05 2.25261e-05 1.79955e-05 7.73374e-06 3.21698e-06 4.58692e-07
threshold=14.023735362560275 79.6151532545408 40.052143590446917 12.105831011322904 1.0000000180025095e-35 55.039812828918464 12.920866457784522 91.449191177854331 54.649576392135508 46.594015582522957 40.052143590446917 68.177049994009664 34.64667767996972 13.039849236333184 16.500000000000004 15.178204431921793 31.500000000000004
decision_type=2 2 2 2 2 2 2 2 2 2 2 2 2 2 2 2 2
left_child=1 2 -1 -4 5 -5 -6 -3 9 10 12 -10 14 -9 -2 -16 -17
right_child=8 7 3 4 6 -7 -8 13 11 -11 -12 -13 -14 -15 15 16 -18
leaf_value=-0.095146962439963151 -0.093916412641878583 0.17109017943905722 0.15914233243664047 0.1322799294648456 -0.039854886246057535 0.03843952463111544 0.023704624690528406 0.17005819396153243 -0.093470750400021382 -0.094452576851024567 -0.093608988860763631 -0.09375489956172145 -0.094041660554968654 0.17026045190112427 -0.093748089639581228 -0.093853541869923535 -0.093817572179639638
leaf_weight=6.262774169445037 9.2679502367973345 7.4914304018020657 7.1013867855072013 7.2097505629062679 6.8564475178718549 11.599732816219328 6.547831803560257 11.440362930297853 6.1358960866928083 6.84729379415512 8.3009251058101636 6.1594821512699127 6.8093121647834769 7.1471660733222953 6.4707394540309933 6.1728067994117728 8.3287460803985578
leaf_count=20 30 21 20 21 21 35 20 32 20 22 27 20 22 20 21 20 27
internal_value=0 0.0873595 0.0398393 0.0613421 0.0397825 0.0744089 -0.00880682 0.17041 -0.0938535 -0.0939101 -0.0938282 -0.0936131 -0.0938773 0.170136 -0.0938403 -0.0938067 -0.0938329
internal_weight=0 71.6569 45.5779 39.3151 32.2138 18.8095 13.4043 26.079 64.4932 52.1978 45.3505 12.2954 37.0496 18.5875 30.2402 20.9723 14.5016
internal_count=419 210 137 117 97 56 41 73 209 169 147 40 120 52 98 68 47
is_linear=0
shrinkage=0.1


Tree=6
num_leaves=17
num_cat=0
split_feature=0 2 0 2 1 3 1 0 0 3 2 1 0 2 2 3
split_gain=82.9349 39.7255 6.75674 3.72804 1.2491 0.722024 0.000994931 0.000382957 0.000282027 0.000244027 0.000172511 0.000110858 0.000110022 0.000174135 3.90452e-05 8.32952e-09
threshold=14.023735362560275 50.116001621641821 16.013129672387397 21.420548905659885 1.0000000180025095e-35 20.500000000000004 1.0000000180025095e-35 12.270575893016755 12.723320021651292 14.500000000000002 62.065440515893144 1.0000000180025095e-35 12.127320524751529 74.727801917885671 55.722635328263273 31.500000000000004
decision_type=2 2 2 2 2 2 2 2 2 2 2 2 2 2 2 2
left_child=6 2 3 -2 -5 -6 9 -8 -9 -1 -10 -3 -11 14 -14 -4
right_child=1 11 15 4 5 -7 7 8 10 12 -12 -13 13 -15 -16 -17
leaf_value=-0.088241461897016427 0.14348520535975307 -0.088065392976915124 0.15243007656434693 0.039879817557060139 0.057727895946284385 0.10014359622550884 -0.087997093466988932 -0.089456191517793285 -0.08896855620037028 -0.088010544048808814 -0.088209845315673718 -0.088661833937242168 -0.087442965918734614 -0.087900184303504422 -0.08707537594450114 0.15243420807992844
leaf_weight=8.8569266200065595 7.7022646367549887 6.33940142393112 14.395452171564104 11.638465523719789 6.8353231251239803 9.720565199851988 6.8857399225235012 5.6866723001003292 6.1898132860660535 5.7820477485656765 5.809639185667038 6.1291756331920624 6.2428536713123339 7.1436732709407798 5.3797189295291901 7.3822385966777793
leaf_count=32 21 23 39 36 20 28 25 20 22 21 21 22 23 26 20 20
internal_value=0 0.0734963 0.108488 0.0818278 0.064984 0.0826317 -0.0881468 -0.0886298 -0.0888761 -0.0877915 -0.0886012 -0.0883586 -0.0876291 -0.0875116 -0.0872728 0.152431
internal_weight=0 70.1429 57.6743 35.8966 28.1944 16.5559 57.9771 24.5719 17.6861 33.4052 11.9995 12.4686 24.5483 18.7662 11.6226 21.7777
internal_count=419 209 164 105 84 48 210 88 63 122 43 45 90 69 43 59
is_linear=0
shrinkage=0.1


Tree=7
num_leaves=17
num_cat=0
split_feature=2 0 0 2 2 0 3 0 2 2 1 2 3 0 2 3
split_gain=22.7013 27.5212 9.56272 10.9147 6.35196 6.71887 2.59892 1.99675 5.79733 1.64713 2.45251 0.802769 0.230829 0.101757 2.74985e-05 5.30889e-10
threshold=79.6151532545408 16.013129672387397 12.092053819174401 20.203644210312653 54.649576392135508 13.524323169454936 20.500000000000004 14.242477736460952 41.054912993562056 43.285958174703687 1.0000000180025095e-35 47.756096995485237 20.500000000000004 13.275095926775391 92.941673468448016 31.500000000000004
decision_type=2 2 2 2 2 2 2 2 2 2 2 2 2 2 2 2
left_child=1 2 -1 -4 7 6 -6 8 -5 10 -9 -10 -7 14 -2 -3
right_child=13 15 3 4 5 12 -8 9 11 -11 -12 -13 -14 -15 -16 -17
leaf_value=-0.081540066040925188 -0.095710870672040343 -0.095634555875211594 -0.081428500604668247 0.10855211684660691 -0.004336918578545952 0.11235999137964958 0.074772584099672176 0.043262515530502116 0.034460914703303945 0.05390995533766834 -0.028211722255691414 -0.011933957393190985 0.13456434632607966 -0.080744912990719855 -0.09544825547582951 -0.095633429872037712
leaf_weight=6.4478704631328574 6.3410154879093232 12.3524107336998 6.4435689747333518 10.488726556301119 7.535379350185397 7.8461969494819668 9.2509232163429242 7.6419952511787459 7.5465117990970594 7.2107645571231833 12.912571907043457 7.3734984695911407 11.608699530363081 6.3799350261688224 10.74132055044174 6.3344728350639334
leaf_count=20 20 39 20 28 21 21 25 21 21 20 37 21 31 20 34 20
internal_value=0 0.0159586 0.0363417 0.0442709 0.0533292 0.0856139 0.0392603 0.0313253 0.0515822 0.0127878 -0.00163827 0.0115325 0.125609 -0.0915211 -0.0955457 -0.0956342
internal_weight=0 120.994 102.307 95.8588 89.4153 36.2412 16.7863 53.1741 25.4087 27.7653 20.5546 14.92 19.4549 23.4623 17.0823 18.6869
internal_count=419 345 286 266 246 98 46 148 70 78 58 42 52 74 54 59
is_linear=0
shrinkage=0.1


Tree=8
num_leaves=17
num_cat=0
split_feature=0 2 2 0 1 2 3 0 2 2 0 0 3 2 2 2
split_gain=92.5608 20.7841 11.0424 6.08325 4.6153 2.9853 1.25772 0.00105874 0.000193597 0.00084182 8.35552e-05 7.51969e-05 0.000122968 7.22335e-05 5.69981e-05 1.0644e-09
threshold=14.023735362560275 79.6151532545408 40.052143590446917 12.105831011322904 1.0000000180025095e-35 55.039812828918464 21.500000000000004 13.233677611317919 54.649576392135508 46.594015582522957 14.409970616763184 16.013129672387397 24.500000000000004 68.177049994009664 93.935473197660883 25.458942031550521
decision_type=2 2 2 2 2 2 2 2 2 2 2 2 2 2 2 2
left_child=1 2 -1 -4 5 -5 -6 14 9 10 -2 12 -12 -10 -3 -13
right_child=8 7 3 4 6 -7 -8 -9 13 -11 11 15 -14 -15 -16 -17
leaf_value=-0.091712037532062141 -0.089831936211491534 0.14620315322360178 0.13667580413848385 0.11694795391301929 0.022329595317573586 0.036121855459548532 -0.038983723370195636 0.14739379472859518 -0.089621556975100047 -0.091389962371314207 -0.090598229689134113 -0.090059756193577922 -0.090109512078518389 -0.090123350878605166 0.14585559728889283 -0.090061451958359906
leaf_weight=5.8996240496635428 6.3127382695674887 7.8139607310295167 7.4025772511959067 7.4961430728435543 6.5854563117027265 11.705205559730528 6.800355464220047 7.4312464296817771 5.715605676174162 6.4958342909812918 10.202351599931719 9.5178751647472364 10.393215030431746 5.7594395875930786 11.911549150943754 6.0570404827594748
leaf_count=20 22 21 20 21 20 35 21 20 20 22 35 33 36 20 32 21
internal_value=0 0.0770365 0.0360019 0.0548434 0.0362541 0.0676761 -0.00881923 0.146377 -0.0902431 -0.0903297 -0.0901676 -0.0902262 -0.0903516 -0.0898734 0.145993 -0.0900604
internal_weight=0 73.0461 45.8894 39.9897 32.5872 19.2013 13.3858 27.1568 60.4541 48.9791 42.4832 36.1705 20.5956 11.475 19.7255 15.5749
internal_count=419 210 137 117 97 56 41 73 209 169 147 125 71 40 53 54
is_linear=0
shrinkage=0.1


Tree=9
num_leaves=16
num_cat=0
split_feature=0 2 0 2 0 2 1 2 2 3 0 1 2 3 2
split_gain=69.6139 31.7216 5.23503 2.84583 0.88135 2.25815 0.00148789 0.000904368 0.000342203 0.00031534 0.00019032 0.000171798 0.000152823 4.33316e-05 7.49784e-08
threshold=14.023735362560275 50.116001621641821 16.013129672387397 21.420548905659885 15.446391274480346 34.64667767996972 1.0000000180025095e-35 76.061279855275259 47.756096995485237 14.500000000000002 12.127320524751529 1.0000000180025095e-35 74.727801917885671 31.500000000000004 29.497591939453716
decision_type=2 2 2 2 2 2 2 2 2 2 2 2 2 2 2
left_child=6 2 3 -2 5 -5 9 8 -8 -1 -11 -3 13 -12 -4
right_child=1 11 14 4 -6 -7 7 -9 -10 10 12 -13 -14 -15 -16
leaf_value=-0.085542433380739635 0.12550405775025977 -0.085306863000031652 0.13376305254309781 0.1109928999832297 0.03107016570075611 0.042340604189216785 -0.085859115228030816 -0.085187169331370799 -0.086856919409863287 -0.085340037656464654 -0.084639388377463542 -0.086077062325197296 -0.085036792483091372 -0.084235960970965085 0.13375075457238259
leaf_weight=8.234955236315729 7.8638061583042136 5.8784661591052991 14.62484920024872 7.8590469360351625 8.7130909562110883 12.27376541495323 5.2032508552074459 7.6526378095149985 10.126072734594343 5.3679053336381939 5.0067265182733554 5.7083864212036133 6.6002626419067374 5.6860480308532715 7.4999266266822806
leaf_count=32 21 23 39 23 25 36 20 30 38 21 20 22 26 23 20
internal_value=0 0.0655509 0.0953356 0.072178 0.0576406 0.0691397 -0.0854657 -0.086075 -0.0865182 -0.0850125 -0.0848199 -0.0856863 -0.0846584 -0.0844249 0.133759
internal_weight=0 70.4213 58.8345 36.7097 28.8459 20.1328 53.8779 22.982 15.3293 30.8959 22.6609 11.5869 17.293 10.6928 22.1248
internal_count=419 209 164 105 84 59 210 88 58 122 90 45 69 43 59
is_linear=0
shrinkage=0.1


Tree=10
num_leaves=17
num_cat=0
split_feature=2 0 0 2 2 0 3 0 2 2 0 2 2 2 0 2
split_gain=19.1457 22.9345 7.82427 8.81046 5.00005 5.58894 2.61532 1.6186 4.57154 1.32009 2.29749 0.732441 0.103282 0.0711521 5.57592e-05 3.78393e-09
threshold=79.6151532545408 16.013129672387397 12.092053819174401 20.203644210312653 54.649576392135508 13.643061943111446 20.500000000000004 14.242477736460952 41.054912993562056 43.285958174703687 14.859225030048142 47.756096995485237 90.516375348688925 68.641587848238871 13.067646215282437 29.497591939453716
decision_type=2 2 2 2 2 2 2 2 2 2 2 2 2 2 2 2
left_child=1 2 -1 -4 7 6 -6 8 -5 10 -9 -10 -2 -7 -14 -3
right_child=12 15 3 4 5 13 -8 9 11 -11 -12 -13 14 -15 -16 -17
leaf_value=-0.076849870640723614 -0.075767300425025511 -0.091241862536089 -0.076476885687407722 0.097362101772365012 -0.0036637273135565469 0.12186334565756246 0.072132202743962481 -0.044142623326516223 0.032936029425126571 0.048257105931721542 0.024893195101140724 -0.011401668330193182 -0.091030729444000036 0.10904170191320861 -0.091417928094993856 -0.091244976312966852
leaf_weight=6.0980947315692893 5.986912518739703 11.512596637010576 6.0813540816307059 10.450703889131548 8.2999145984649676 10.382295399904253 10.08217880129814 7.7693481743335786 7.5653272569179517 7.2859231531620017 12.701582968235014 7.341478019952774 9.9966052174568159 7.4223166406154624 5.922708421945571 5.9042410850524893
leaf_count=20 20 39 20 28 23 28 27 22 21 20 36 21 34 20 20 20
internal_value=0 0.0147717 0.0329667 0.0399876 0.0479187 0.0765863 0.0379087 0.0283876 0.0466516 0.0117024 -0.00130802 0.0111001 -0.086964 0.116518 -0.0911748 -0.0912429
internal_weight=0 118.897 101.481 95.3824 89.3011 36.1867 18.3821 53.1144 25.3575 27.7569 20.4709 14.9068 21.9062 17.8046 15.9193 17.4168
internal_count=419 345 286 266 246 98 50 148 70 78 58 42 74 48 54 59
is_linear=0
shrinkage=0.1


Tree=11
num_leaves=17
num_cat=0
split_feature=0 2 2 0 1 2 0 0 0 2 2 0 3 2 3 0
split_gain=77.5962 16.0573 9.30075 4.65751 3.97192 2.33462 1.19249 0.00125058 0.000299775 0.000482654 0.000804976 0.000285553 0.000241858 2.72838e-05 5.51939e-06 7.67882e-06
threshold=14.023735362560275 79.6151532545408 40.052143590446917 12.105831011322904 1.0000000180025095e-35 55.039812828918464 12.920866457784522 13.233677611317919 15.789294158796153 54.649576392135508 44.140444262431153 14.409970616763184 23.500000000000004 93.935473197660883 25.500000000000004 16.723489757303355
decision_type=2 2 2 2 2 2 2 2 2 2 2 2 2 2 2 2
left_child=1 2 -1 -4 5 -5 -6 13 9 10 11 -2 -13 -3 15 -10
right_child=8 7 3 4 6 -7 -8 -9 14 -11 -12 12 -14 -15 -16 -17
leaf_value=-0.088851627589921933 -0.08668352070224683 0.12932250294560796 0.1205959265867336 0.10492142399234371 -0.038292279826331044 0.034073724073743893 0.021480762046074416 0.13069376950100986 -0.086997305113732534 -0.086774173420860592 -0.088647885604939122 -0.08793091906522954 -0.087146543644735952 0.12908283505122037 -0.086802699713168646 -0.086830068523081824
leaf_weight=5.5288383662700644 5.5871367752552095 7.867403030395514 7.4927377402782431 7.6817682087421444 6.7619600892066938 11.789661467075346 6.5908989906311035 7.4962618052959433 5.3715119659900683 10.373799085617064 5.5678519010543814 7.4209565520286551 8.3591513335704786 11.98698854446411 8.0165195763111097 5.6162020862102509
leaf_count=20 21 21 20 21 21 35 20 20 20 39 20 27 31 32 30 21
internal_value=0 0.0689535 0.0327771 0.0494565 0.0332177 0.0620242 -0.00878863 0.129593 -0.0871891 -0.0873537 -0.087577 -0.0872979 -0.0875154 0.129178 -0.0868658 -0.0869118
internal_weight=0 73.1965 45.8459 40.317 32.8243 19.4714 13.3529 27.3507 56.3131 37.3089 26.9351 21.3672 15.7801 19.8544 19.0042 10.9877
internal_count=419 210 137 117 97 56 41 73 209 138 99 79 58 53 71 41
is_linear=0
shrinkage=0.1


Tree=12
num_leaves=16
num_cat=0
split_feature=0 2 0 2 1 3 1 2 2 3 1 0 2 3 2
split_gain=58.9448 25.679 4.34356 2.28443 0.838613 0.60722 0.00174634 0.00148885 0.000418616 0.000347246 0.000250485 0.000223477 9.46235e-05 4.70829e-05 5.03678e-08
threshold=14.023735362560275 50.116001621641821 16.013129672387397 21.420548905659885 1.0000000180025095e-35 20.500000000000004 1.0000000180025095e-35 76.061279855275259 47.756096995485237 14.500000000000002 1.0000000180025095e-35 12.127320524751529 74.727801917885671 31.500000000000004 27.103601424645358
decision_type=2 2 2 2 2 2 2 2 2 2 2 2 2 2 2
left_child=6 2 3 -2 -5 -6 9 8 -8 -1 -3 -11 13 -13 -4
right_child=1 10 14 4 5 -7 7 -9 -10 11 -12 12 -14 -15 -16
leaf_value=-0.083267326654346496 0.1121631771288143 -0.082907805637667364 0.1203533558478605 0.031161558543589762 0.043155019029076702 0.081200291224962001 -0.083713506965856374 -0.082692794196423669 -0.084854462199010605 -0.083065108757762823 -0.083875571154842329 -0.082336872002280626 -0.082606394237176514 -0.081898034195680314 0.12034333213402844
leaf_weight=7.6285811513662365 7.837066024541854 5.413311302661894 14.084252536296846 12.067486196756365 7.1414480507373836 10.168352127075194 4.8568657785654095 7.0267174690961829 9.5167661905288679 4.9542543590068844 5.2861887514591217 4.6066258847713453 6.0640559345483771 5.2099175155162811 7.7832456827163687
leaf_count=32 21 23 38 36 20 28 20 30 38 21 22 20 26 23 21
internal_value=0 0.0591633 0.0849784 0.0641939 0.051397 0.0655041 -0.0832032 -0.0838857 -0.0844689 -0.0826901 -0.0833859 -0.0824787 -0.0822958 -0.082104 0.12035
internal_weight=0 69.7814 59.0819 37.2144 29.3773 17.3098 49.8638 21.4003 14.3736 28.4634 10.6995 20.8349 15.8806 9.81654 21.8675
internal_count=419 209 164 105 84 48 210 88 58 122 45 90 69 43 59
is_linear=0
shrinkage=0.1


Tree=13
num_leaves=17
num_cat=0
split_feature=2 0 0 2 2 0 3 0 2 1 0 2 0 0 2 2
split_gain=16.2746 18.9058 6.7003 7.0072 3.43327 5.63178 1.69854 1.3328 3.67171 1.06041 0.665787 0.647693 0.257993 6.39457e-05 2.38951e-05 2.41219e-09
threshold=80.83452782746447 16.013129672387397 12.092053819174401 20.203644210312653 54.649576392135508 13.524323169454936 22.500000000000004 14.242477736460952 41.054912993562056 1.0000000180025095e-35 14.945427805266403 47.756096995485237 14.28742101805789 13.183965038797767 102.09289631522036 29.497591939453716
decision_type=2 2 2 2 2 2 2 2 2 2 2 2 2 2 2 2
left_child=1 2 -1 -4 7 6 -6 8 -5 -9 -11 -10 -7 14 -2 -3
right_child=13 15 3 4 5 12 -8 9 11 10 -12 -13 -14 -15 -16 -17
leaf_value=-0.073387403351487954 -0.087670315838077356 -0.087608148876961653 -0.072021968997032546 0.088524440550442049 -0.0048308432310788553 0.08782384477493535 0.057065499657439844 0.034797509565075289 0.031263355394023772 0.015617399035213021 -0.024340582988354256 -0.010483782999045099 0.11162550833216367 -0.087923980948291916 -0.087397824296881726 -0.0876107348028628
leaf_weight=6.0125839114189139 5.737977474927904 10.641013860702516 5.7065927088260642 10.273911952972414 9.2548029720783251 7.28065297007561 8.5103965997695905 11.051207691431047 7.5774018466472608 8.030289828777315 8.674232751131056 7.2934026420116425 12.16003507375717 5.4986033439636222 7.3280103206634521 5.4572816193103781
leaf_count=21 21 39 20 28 26 20 23 30 21 23 25 21 34 20 27 20
internal_value=0 0.0130922 0.0290127 0.0354387 0.0422443 0.0655199 0.0248205 0.0258742 0.0425507 0.0107665 -0.00513176 0.0107884 0.102712 -0.0876379 -0.0875175 -0.087609
internal_weight=0 117.924 101.826 95.8129 90.1063 37.2059 17.7652 52.9004 25.1447 27.7557 16.7045 14.8708 19.4407 18.5646 13.066 16.0983
internal_count=419 351 292 271 251 103 49 148 70 78 48 42 54 68 48 59
is_linear=0
shrinkage=0.1


Tree=14
num_leaves=17
num_cat=0
split_feature=0 2 2 0 1 2 0 0 0 2 2 0 2 3 2 2
split_gain=65.5916 12.8934 7.88612 3.67806 3.41915 1.88061 1.04893 0.000689469 0.0005962 0.000678256 0.000807731 0.000428439 0.000302318 0.000265577 0.000103073 1.74094e-08
threshold=14.023735362560275 79.6151532545408 40.052143590446917 12.105831011322904 1.0000000180025095e-35 55.039812828918464 12.920866457784522 13.233677611317919 16.013129672387397 54.649576392135508 45.754335079256542 14.409970616763184 68.177049994009664 24.500000000000004 93.935473197660883 27.103601424645358
decision_type=2 2 2 2 2 2 2 2 2 2 2 2 2 2 2 2
left_child=1 2 -1 -4 5 -5 -6 14 9 10 11 -2 -11 -13 -3 -10
right_child=8 7 3 4 6 -7 -8 -9 15 12 -12 13 -14 -15 -16 -17
leaf_value=-0.086441622535471482 -0.084015663461541656 0.11734891678971733 0.10849646877769048 0.095257662748943095 -0.036599219551146478 0.032012079818611872 0.019571872499839243 0.1182003354578133 -0.084073180906150888 -0.083546061050172926 -0.086197814317174395 -0.085443910109357854 -0.08465769644570395 -0.084665263395917109 0.11687881689708041 -0.084065950683965773
leaf_weight=5.1557110995054236 5.1464466601610246 7.7287553250789705 7.4210917651653281 7.7860194444656399 6.6670388579368574 11.867818236351011 6.6309256255626678 7.3760917782783499 9.3579444885253888 4.8355930000543577 5.2179194688796988 8.7353672981262225 4.9516429752111435 8.7861801832914335 11.762162446975706 5.1702340245246878
leaf_count=20 21 21 20 21 21 35 20 20 38 20 20 34 20 35 32 21
internal_value=0 0.0624406 0.0300219 0.0448946 0.0305708 0.0570673 -0.00858995 0.117377 -0.0846148 -0.0848247 -0.0850761 -0.0848178 -0.0841085 -0.0850535 0.117065 -0.0840706
internal_weight=0 72.3956 45.5286 40.3729 32.9518 19.6538 13.298 26.867 52.2013 37.6731 27.8859 22.668 9.78724 17.5215 19.4909 14.5282
internal_count=419 210 137 117 97 56 41 73 209 150 110 90 40 69 53 59
is_linear=0
shrinkage=0.1


Tree=15
num_leaves=17
num_cat=0
split_feature=2 0 2 0 1 0 0 2 0 3 2 0 2 1 2 3
split_gain=48.3309 22.0285 3.09531 2.40038 1.89594 0.843992 0.829795 0.0711274 0.0134237 0.00117464 0.00134586 0.00163172 0.000344661 0.000280107 0.000175253 2.87783e-05
threshold=47.756096995485237 14.023735362560275 19.633544244162319 16.083871094999825 1.0000000180025095e-35 14.97208982978117 15.486209072263707 50.626787076797818 16.013129672387397 20.500000000000004 80.83452782746447 13.582454375661337 39.086627158514112 1.0000000180025095e-35 76.798507530310403 35.500000000000007
decision_type=2 2 2 2 2 2 2 2 2 2 2 2 2 2 2 2
left_child=1 12 8 4 -4 -6 7 -2 -3 10 11 -9 -1 15 -15 -11
right_child=6 2 3 -5 5 -7 -8 9 -10 13 -12 -13 -14 14 -16 -17
leaf_value=-0.081903625402718755 -0.093323138534014846 0.11590016411543291 0.019754368320708478 0.11034634152191931 0.047524726653145367 0.094931009787443552 -0.035923598993977922 -0.083272678622851939 0.11034434869572174 -0.080498287994681533 -0.080403024602480944 -0.080892760344494719 -0.080744460662584047 -0.081412414441344172 -0.080573446579935745 -0.080196366655911233
leaf_weight=4.9470654875040037 5.44275078177452 7.6696082949638393 12.894786953926086 7.8919841051101676 7.2699396312236786 7.7685503363609314 4.1569120585918418 7.3531703799963015 10.044248074293135 6.8112848252058029 5.0985813885927191 4.7365481406450272 5.3273423314094543 5.9521634578704834 4.2804190963506699 5.88444484770298
leaf_count=22 20 21 38 22 20 21 16 31 28 32 24 22 25 27 20 28
internal_value=0 0.0528173 0.0785555 0.0616481 0.0478894 0.0720138 -0.0786936 -0.082596 0.11275 -0.0811407 -0.0817656 -0.0823403 -0.0813026 -0.0806721 -0.0810615 -0.0803583
internal_weight=0 63.8135 53.5391 35.8253 27.9333 15.0385 49.7163 45.5594 17.7139 40.1166 17.1883 12.0897 10.2744 22.9283 10.2326 12.6957
internal_count=417 197 150 101 79 41 220 204 49 184 77 53 47 107 47 60
is_linear=0
shrinkage=0.1


Tree=16
num_leaves=17
num_cat=0
split_feature=2 0 2 0 0 0 2 2 1 2 3 0 2 0 2 2
split_gain=13.583 15.0526 7.98992 8.7035 1.63568 2.0539 10.4403 2.76934 1.56313 1.46081 1.81589 0.792698 0.145763 3.51592e-05 1.11441e-05 3.12626e-10
threshold=80.83452782746447 16.013129672387397 19.633544244162319 12.067021620756297 12.35564392701526 13.643061943111446 47.756096995485237 44.576000095192342 1.0000000180025095e-35 31.573901137813898 26.500000000000004 14.28742101805789 59.004748903522533 13.067646215282437 102.86019200052425 26.1176708961294
decision_type=2 2 2 2 2 2 2 2 2 2 2 2 2 2 2 2
left_child=1 2 -1 -4 -5 7 9 -6 -9 -7 -11 -8 -13 14 -2 -3
right_child=13 15 3 4 5 6 11 8 -10 10 -12 12 -14 -15 -16 -17
leaf_value=-0.087148503896657473 -0.084586289243921572 -0.084577155401242485 -0.086398238294907559 0.083516537266364821 0.072262788977535783 0.044351528333132245 0.073745476922710371 -0.022180318043905793 0.030067699449623037 -0.028166462089222966 0.031745224279369232 0.12404858873595942 0.1046624808753116 -0.084802325052050653 -0.08437752414089561 -0.084578156723449135
leaf_weight=5.6433940827846518 5.0084888190031034 8.2625712454318982 5.5502905249595633 8.8101739287376386 7.0658368468284634 9.252864748239519 7.4056072533130672 13.03343078494072 10.212942719459534 12.232244968414308 8.6269634366035444 7.0985838770866385 8.5501139461994153 5.0428143441677085 5.2240258306264877 5.0077806115150443
leaf_count=21 20 33 21 25 20 27 21 37 28 34 24 20 25 20 21 20
internal_value=0 0.0156908 0.028549 0.0352224 0.0425368 0.0382118 0.0500557 0.0174382 0.000774058 0.0112813 -0.00338815 0.1007 0.113456 -0.0845862 -0.0844797 -0.0845775
internal_weight=0 116.753 103.482 97.8391 92.2888 83.4786 53.1664 30.3122 23.2464 30.1121 20.8592 23.0543 15.6487 15.2753 10.2325 13.2704
internal_count=417 356 303 282 261 236 151 85 65 85 58 66 45 61 41 53
is_linear=0
shrinkage=0.1


Tree=17
num_leaves=17
num_cat=0
split_feature=0 2 2 0 3 2 2 0 2 2 2 1 3 0 0 2
split_gain=53.7092 11.4949 6.198 3.97673 3.64669 1.25257 0.801284 0.00103289 0.00113755 0.00123221 0.000653504 0.000313313 0.000130927 5.14368e-05 3.61755e-05 1.25142e-05
threshold=14.023735362560275 40.052143590446917 79.6151532545408 12.067021620756297 38.500000000000007 50.116001621641821 62.898991969042804 15.905660361830854 54.649576392135508 45.754335079256542 91.932817382021426 1.0000000180025095e-35 22.500000000000004 12.74651051159938 15.051155579556065 30.425886912212473
decision_type=2 2 2 2 2 2 2 2 2 2 2 2 2 2 2 2
left_child=1 -1 3 -3 5 -5 -7 8 9 11 -4 14 -13 -12 -2 -9
right_child=7 2 10 4 -6 6 -8 15 -10 -11 13 12 -14 -15 -16 -17
leaf_value=-0.084186887368425195 -0.082184362308440645 0.11159893564559834 0.10897114972188374 0.013560043477578108 -0.034974485968885076 0.075578799201898986 0.034872255422133298 -0.081681917926030453 -0.081788613628185347 -0.084541520022903438 0.10767550180940487 -0.083450578072772702 -0.082751070193861354 0.10804399599070867 -0.082570858548367779 -0.081886470043259829
leaf_weight=5.489150643348693 5.0383864641189611 7.2155286371707907 7.8332836329937008 8.4396269023418444 6.9195876121520987 12.189594030380251 8.0154747664928419 8.7758637964725477 8.5065242350101453 4.9437919855117789 8.1352594196796399 6.2468089163303375 4.6806581318378448 7.0887652635574332 4.6630307734012604 4.5371534377336493
leaf_count=23 22 20 22 24 21 35 24 39 38 20 23 26 20 20 20 20
internal_value=0 0.0548441 0.0664358 0.0439102 0.0301771 0.0459155 0.0594303 -0.0824986 -0.0827903 -0.0831236 0.108229 -0.0827837 -0.083151 0.107847 -0.0823701 -0.0817516
internal_weight=0 71.3263 65.8371 42.7798 35.5643 28.6447 20.2051 47.3922 34.0792 25.5727 23.0573 20.6289 10.9275 15.224 9.70142 13.313
internal_count=417 212 189 124 104 83 59 205 146 108 65 88 46 43 42 59
is_linear=0
shrinkage=0.1


Tree=18
num_leaves=16
num_cat=0
split_feature=2 0 2 0 1 0 0 2 0 2 3 0 2 1 3
split_gain=41.0286 18.3989 2.76213 2.11615 1.61824 0.812145 0.744103 0.0531796 0.00779531 0.00120606 0.000940463 0.00145574 0.000287924 0.000204607 2.74575e-06
threshold=47.756096995485237 14.023735362560275 19.633544244162319 16.083871094999825 1.0000000180025095e-35 15.486209072263707 14.97208982978117 50.626787076797818 16.013129672387397 79.6151532545408 20.500000000000004 13.582454375661337 39.086627158514112 1.0000000180025095e-35 31.500000000000004
decision_type=2 2 2 2 2 2 2 2 2 2 2 2 2 2 2
left_child=1 12 8 4 -4 7 -6 -2 -3 10 11 -9 -1 -12 -11
right_child=5 2 3 -5 6 -7 -8 9 -10 14 13 -13 -14 -15 -16
leaf_value=-0.08031093146854433 -0.090231437866465841 0.10698593951572573 0.017089765305373223 0.10265699010179062 0.042275196268282682 -0.033346765506665745 0.086598781453382942 -0.081358254539385097 0.10265745943585801 -0.078601994912272863 -0.078829584798002394 -0.079008639371014711 -0.079210854817434909 -0.079622382832404803 -0.078506937072023081
leaf_weight=4.5962415337562543 5.1269957423210135 7.3653796911239651 13.032026022672653 7.5133112370967856 7.3423918187618256 3.9666396975517264 7.8232346773147583 6.8071938902139681 9.5624333322048169 7.3378740400075895 7.0211773216724378 4.3041739910840988 4.9324351251125336 6.0693569034337997 5.1864212900400162
leaf_count=22 20 21 38 22 20 16 21 31 28 38 36 22 25 30 27
internal_value=0 0.0481234 0.0712695 0.0554981 0.0429326 -0.0765925 0.0651397 -0.0806911 0.104541 -0.0793592 -0.0797715 -0.0804481 -0.0797415 -0.0791972 -0.0785626
internal_weight=0 62.1675 52.6388 35.711 28.1977 45.8198 15.1656 41.8532 16.9278 36.7262 24.2019 11.1114 9.52868 13.0905 12.5243
internal_count=417 197 150 101 79 220 41 204 49 184 119 53 47 66 65
is_linear=0
shrinkage=0.1


Tree=19
num_leaves=16
num_cat=0
split_feature=2 0 2 0 0 0 2 1 0 2 3 2 2 0 2
split_gain=11.6037 12.7694 6.65174 7.18038 1.37172 1.68898 6.97678 3.2819 3.24825 1.15892 1.64563 0.202558 2.57556e-05 2.29891e-05 6.44135e-06
threshold=80.83452782746447 16.013129672387397 19.633544244162319 12.067021620756297 12.342103746637614 13.325448734305455 47.756096995485237 1.0000000180025095e-35 14.104402985688617 31.573901137813898 26.500000000000004 56.26607238371232 26.1176708961294 13.067646215282437 102.86019200052425
decision_type=2 2 2 2 2 2 2 2 2 2 2 2 2 2 2
left_child=1 2 -1 -4 -5 7 9 -6 -8 -7 -11 -10 -3 14 -2
right_child=13 12 3 4 5 6 8 -9 11 10 -12 -13 -14 -15 -16
leaf_value=-0.084184938006432716 -0.082011398640276623 -0.082032079712576561 -0.083522650778748486 0.079031052136782604 -0.024054272376768993 0.041392755370959509 0.036355067345101785 0.048817852464412011 0.12037311509098303 -0.023752442805335682 0.032035555600737002 0.098329802501377295 -0.082332028873763369 -0.082199765303052522 -0.081845099735735727
leaf_weight=5.1685689985752097 4.5623464435338956 7.5351295173168165 5.0734788477420798 7.7218358218669882 12.136585354804993 9.2435823380947131 10.321852475404741 12.592594653367996 6.9883435666561153 12.878072291612627 8.970753997564314 10.331668049097059 4.6166130602359772 4.5969569087028495 4.75839863717556
leaf_count=21 20 33 21 22 35 27 29 35 20 36 25 32 20 20 21
internal_value=0 0.0147252 0.0263311 0.0322652 0.0387075 0.0349769 0.0442073 0.0130537 0.0807605 0.0117107 -0.000846846 0.107224 -0.082146 -0.0820168 -0.0819265
internal_weight=0 113.579 101.427 96.2588 91.1853 83.4635 58.7343 24.7292 27.6419 31.0924 21.8488 17.32 12.1517 13.9177 9.32075
internal_count=417 356 303 282 261 239 169 70 81 88 61 52 53 61 41
is_linear=0
shrinkage=0.1


Tree=20
num_leaves=16
num_cat=0
split_feature=0 2 2 0 3 2 2 0 2 2 2 2 3 2 0
split_gain=45.9226 9.68406 5.39377 3.31334 3.06879 0.985607 0.675139 0.000988384 0.00146408 0.00083625 0.000799014 0.000369716 0.000266392 6.45059e-05 2.96338e-05
threshold=14.023735362560275 40.052143590446917 79.6151532545408 12.067021620756297 38.500000000000007 50.116001621641821 62.898991969042804 15.905660361830854 54.649576392135508 45.754335079256542 91.932817382021426 21.420548905659885 25.500000000000004 30.425886912212473 12.74651051159938
decision_type=2 2 2 2 2 2 2 2 2 2 2 2 2 2 2
left_child=1 -1 3 -3 5 -5 -7 8 9 11 -4 -2 -13 -9 -12
right_child=7 2 10 4 -6 6 -8 13 -10 -11 14 12 -14 -15 -16
leaf_value=-0.082316900138302854 -0.080197679326328791 0.10359710302705914 0.10197737684503874 0.013294640403888072 -0.032534860097073806 0.068614959053378083 0.031476975761335298 -0.079652295718955143 -0.079682269615231893 -0.082479135565692446 0.10056880166319485 -0.081609661836621467 -0.080747986025697285 -0.080136941504638515 0.10085607017648118
leaf_weight=5.1026859581470481 4.6088767200708487 6.8820655345916739 7.4578118026256588 8.4373802244663256 6.8166018426418296 12.363616377115251 8.1033388376235944 7.9809413850307447 7.699396699666976 4.6042926162481299 7.7095364630222303 8.0510025024414045 6.4720438420772544 4.1871563494205475 6.7219302356243134
leaf_count=23 22 20 22 24 21 35 24 39 38 20 23 36 30 20 20
internal_value=0 0.0502986 0.0607913 0.0400618 0.027821 0.0420549 0.0539112 -0.0805843 -0.0808805 -0.0812692 0.101137 -0.080978 -0.0812257 -0.0798191 0.100703
internal_weight=0 69.595 64.4923 42.603 35.7209 28.9043 20.467 43.6037 31.4356 23.7362 21.8893 19.1319 14.523 12.1681 14.4315
internal_count=417 212 189 124 104 83 59 205 146 108 65 88 66 59 43
is_linear=0
shrinkage=0.1


Tree=21
num_leaves=17
num_cat=0
split_feature=2 0 2 0 1 0 0 2 0 2 0 0 3 2 2 3
split_gain=34.8008 15.6822 2.52072 1.89433 1.39266 0.797791 0.665372 0.0375932 0.00467369 0.00115366 0.000916896 0.00100216 0.000859134 0.000305717 0.000302606 2.0041e-06
threshold=47.756096995485237 14.023735362560275 19.633544244162319 16.083871094999825 1.0000000180025095e-35 15.486209072263707 14.97208982978117 50.626787076797818 16.013129672387397 79.6151532545408 13.474731374479896 12.162985131061992 19.500000000000004 59.083627980203318 39.086627158514112 31.500000000000004
decision_type=2 2 2 2 2 2 2 2 2 2 2 2 2 2 2 2
left_child=1 14 8 4 -4 7 -6 -2 -3 10 11 -9 -13 -12 -1 -11
right_child=5 2 3 -5 6 -7 -8 9 -10 15 13 12 -14 -15 -16 -17
leaf_value=-0.079150079076306529 -0.087269519749534771 0.10007213014193253 0.014869556936026686 0.096613179817462966 0.037790865544229273 -0.030832251772660191 0.079627891965247777 -0.077310639760997335 0.096621259654838268 -0.077015787512762904 -0.078133572054070718 -0.080221779047667641 -0.078343281345639226 -0.076940586476784423 -0.077984381334300176 -0.076930319222790755
leaf_weight=4.3230649530887586 4.7952821105718604 6.9690525829792014 13.140339285135269 7.0582360327243796 7.3905066847801208 3.7800304293632498 7.8276219964027405 3.558932393789294 8.9841307997703534 6.6269013434648496 3.6607688814401609 4.8125877827405912 4.9274355322122574 5.1983878165483475 4.5928023755550385 4.6817711591720581
leaf_count=22 20 21 38 22 20 16 21 20 28 38 20 23 26 30 25 27
internal_value=0 0.0438749 0.0651231 0.050256 0.0387179 -0.074659 0.0593102 -0.0789888 0.0981288 -0.0778023 -0.0782217 -0.0787467 -0.0792715 -0.0774336 -0.0785496 -0.0769804
internal_weight=0 60.2858 51.3699 35.4167 28.3585 42.0421 15.2181 38.2621 15.9532 33.4668 22.1581 13.299 9.74002 8.85916 8.91587 11.3087
internal_count=417 197 150 101 79 220 41 204 49 184 119 69 49 50 47 65
is_linear=0
shrinkage=0.1


Tree=22
num_leaves=18
num_cat=0
split_feature=2 0 2 0 0 0 2 2 0 0 1 0 0 0 2 0 2
split_gain=9.9414 10.8705 5.55661 5.947 1.16952 1.72042 2.35436 0.672731 6.54963 2.57482 1.45039 0.947137 0.851981 0.472879 8.49649e-05 1.50991e-05 3.6373e-06
threshold=80.83452782746447 16.013129672387397 19.633544244162319 12.067021620756297 12.35564392701526 12.689820273217125 62.065440515893144 47.756096995485237 13.643061943111446 13.893395641719627 1.0000000180025095e-35 15.051155579556065 14.97208982978117 14.28742101805789 26.1176708961294 13.067646215282437 102.86019200052425
decision_type=2 2 2 2 2 2 2 2 2 2 2 2 2 2 2 2 2
left_child=1 2 -1 -4 -5 -6 7 9 -9 -7 11 -11 -12 -8 -3 16 -2
right_child=15 14 3 4 5 6 13 8 -10 10 12 -13 -14 -15 -16 -17 -18
leaf_value=-0.081698266675077735 -0.079843177310543731 -0.079883440304337042 -0.081115226613002397 0.070110834750465117 -0.010332913158001006 0.071646117579185542 0.056692564335881268 -0.015663680502350067 0.091978797474716184 0.002349206192492044 0.0073824089776018875 0.053066293033677693 -0.042147784676038622 0.094122552531631903 -0.080453325004244569 -0.080008761046166318 -0.079711890490402393
leaf_weight=4.7051685005426398 4.1333546340465528 6.8348005414009076 4.6107988208532324 8.7293722331523878 8.7351039648056013 7.5056094825267783 7.208699017763136 10.64752969145775 12.049538612365721 7.3653051257133484 6.9583388864994049 7.3633951842784882 6.9332302212715149 6.3472095727920532 4.2385709583759308 4.1677448898553839 4.3114623874425888
leaf_count=21 20 33 21 25 25 22 21 30 36 20 20 20 21 21 20 20 21
internal_value=0 0.01387 0.024364 0.0296474 0.0353318 0.031589 0.0366483 0.0279903 0.0414821 0.0195136 0.005842 0.0277045 -0.0173379 0.0742182 -0.0801016 -0.079853 -0.0797761
internal_weight=0 110.233 99.1593 94.4541 89.8433 81.114 72.3789 58.8229 22.6971 36.1259 28.6203 14.7287 13.8916 13.5559 11.0734 12.6126 8.44482
internal_count=417 356 303 282 261 236 211 169 66 103 81 40 41 42 53 61 41
is_linear=0
shrinkage=0.1


Tree=23
num_leaves=17
num_cat=0
split_feature=0 2 2 0 3 2 2 2 2 2 2 0 3 2 0 2
split_gain=39.35 8.34979 4.77528 2.80713 2.61494 0.834426 0.58621 0.000993793 0.00179021 0.000871786 0.00049031 0.000326967 0.000297572 0.000161797 1.75516e-05 7.60702e-09
threshold=14.023735362560275 40.052143590446917 79.6151532545408 12.067021620756297 38.500000000000007 50.116001621641821 62.898991969042804 54.649576392135508 31.745065150206418 91.932817382021426 46.594015582522957 15.965918814669296 25.500000000000004 21.420548905659885 12.74651051159938 16.126005831307669
decision_type=2 2 2 2 2 2 2 2 2 2 2 2 2 2 2 2
left_child=1 -1 3 -3 5 -5 -7 8 11 -4 12 13 -10 -2 -11 -13
right_child=7 2 9 4 -6 6 -8 -9 10 14 -12 15 -14 -15 -16 -17
leaf_value=-0.080919488638361778 -0.078415039144162701 0.097337207379642646 0.096436990824003185 0.012276548986346156 -0.030468343461219762 0.063250251625562678 0.02878293429906937 -0.077859066276188604 -0.079970084743138492 0.094956712008521862 -0.080803286732494373 -0.077933418440160912 -0.078979551043119711 -0.079294449130495659 0.095185195071155609 -0.077927089882450618
leaf_weight=4.7965639829635611 4.3729153275489789 6.4742937982082358 7.0182707607746151 8.4362729787826556 6.7139890491962424 12.465337544679643 8.1676321625709516 7.1050691008567801 7.4435032010078448 7.2162247002124769 4.3034247756004325 3.7100622951984397 5.1183421462774277 4.0112106651067734 6.2949474453926086 3.8916754871606827
leaf_count=23 23 20 22 24 21 35 24 39 36 23 20 20 26 20 20 21
internal_value=0 0.0462512 0.0559663 0.0367442 0.025781 0.0387727 0.0496062 -0.0789314 -0.0791634 0.0955328 -0.0798821 -0.0784051 -0.0795665 -0.0788358 0.0950632 -0.0779302
internal_weight=0 67.5835 62.787 42.2575 35.7832 29.0692 20.633 39.9562 32.8511 20.5294 16.8653 15.9859 12.5618 8.38413 13.5112 7.60174
internal_count=417 212 189 124 104 83 59 205 166 65 82 84 62 43 43 41
is_linear=0
shrinkage=0.1


Tree=24
num_leaves=15
num_cat=0
split_feature=0 2 2 0 1 0 0 0 2 0 1 2 0 3
split_gain=29.8247 13.3307 2.35016 1.72549 1.07844 0.646104 0.530281 0.00286306 0.00239771 0.00093537 0.000920599 0.000310909 0.000233692 1.78204e-06
threshold=14.023735362560275 47.756096995485237 19.633544244162319 16.083871094999825 1.0000000180025095e-35 15.486209072263707 14.97208982978117 16.013129672387397 79.6151532545408 12.067021620756297 1.0000000180025095e-35 47.018837647864046 13.039849236333184 31.500000000000004
decision_type=2 2 2 2 2 2 2 2 2 2 2 2 2 2
left_child=8 2 7 4 -4 -3 -6 -2 9 -1 12 -12 -11 -10
right_child=1 5 3 -5 6 -7 -8 -9 13 10 11 -13 -14 -15
leaf_value=-0.075822470976815978 0.094594305762507963 -0.080686267721116076 0.013937573320012251 0.0917755797965433 0.03390338082397263 -0.028748602042387356 0.071290129427005564 0.091797328446011295 -0.075650726777591437 -0.077469355042497329 -0.077570303588253814 -0.078710039994346018 -0.076586251881111803 -0.075565725647291415
leaf_weight=3.1850163787603405 6.5152570605278006 7.1120110601186735 13.184385478496552 6.5583747625350943 7.4155053496360779 3.611429363489151 7.7677245736122131 8.3502958416938764 5.9620465636253339 6.3327518701553345 3.6087556928396225 7.1071560233831406 5.6880177706480026 4.2066853791475296
leaf_count=20 21 39 38 22 20 16 21 28 38 36 20 37 34 27
internal_value=0 0.0379411 0.0597224 0.0455486 0.0348613 -0.0631948 0.0530304 0.0930232 -0.0769169 -0.0774274 -0.0776523 -0.0783262 -0.0770515 -0.0756156
internal_weight=0 60.515 49.7915 34.926 28.3676 10.7234 15.1832 14.8656 36.0904 25.9217 22.7367 10.7159 12.0208 10.1687
internal_count=417 205 150 101 79 55 41 49 212 147 127 57 70 65
is_linear=0
shrinkage=0.1


Tree=25
num_leaves=17
num_cat=0
split_feature=2 0 2 0 3 0 2 2 3 1 2 0 3 2 0 2
split_gain=8.53823 9.28601 4.65824 4.94493 1.05023 1.96695 1.96156 1.76182 1.26534 2.60321 0.847395 1.20031 0.56266 0.000159968 9.94487e-06 2.00402e-06
threshold=80.83452782746447 16.013129672387397 19.633544244162319 12.067021620756297 41.500000000000007 15.051155579556065 47.879471599881334 48.548724196599856 15.500000000000002 1.0000000180025095e-35 42.689636776031328 13.881495871869181 27.500000000000004 26.1176708961294 13.067646215282437 102.86019200052425
decision_type=2 2 2 2 2 2 2 2 2 2 2 2 2 2 2 2
left_child=1 2 -1 -4 5 8 -7 -6 9 -5 -10 12 -12 -3 15 -2
right_child=14 13 3 4 7 6 -8 -9 10 -11 11 -13 -14 -15 -16 -17
leaf_value=-0.079600626067527547 -0.07800840512890353 -0.07806105772829891 -0.079085496771259922 0.0010397499723472418 0.025779099890978121 0.027711098966100158 0.098290902062634203 0.093330828238961633 -0.017567237989144946 0.069806122863649747 -0.015968117223808819 0.053752488770704543 0.01971571822218951 -0.078880606278142529 -0.078154756535802186 -0.077905788399884213
leaf_weight=4.2612819522619239 3.7271407693624479 6.1707242876291257 4.1690727323293677 10.461565613746643 8.6641743779182416 9.1143956482410449 6.9328897893428794 6.9642806202173224 10.232510566711424 11.619096890091896 8.1548748612403923 6.4383557438850394 9.6450333893299085 3.8787378370761871 3.760870173573494 3.888769119977951
leaf_count=21 20 33 21 31 25 26 23 21 30 34 23 21 27 20 20 21
internal_value=0 0.0131107 0.0226227 0.0273372 0.0323661 0.027304 0.0582036 0.0558812 0.0185357 0.0372254 0.00656386 0.0167511 0.00336748 -0.0783774 -0.0780217 -0.077956
internal_weight=0 106.707 96.6575 92.3963 88.2272 72.5987 16.0473 15.6285 56.5514 22.0807 34.4708 24.2383 17.7999 10.0495 11.3768 7.61591
internal_count=417 356 303 282 261 215 49 46 166 65 101 71 50 53 61 41
is_linear=0
shrinkage=0.1


Tree=26
num_leaves=18
num_cat=0
split_feature=0 2 2 0 3 2 2 2 2 2 2 0 0 2 3 0 3
split_gain=34.0211 7.1617 4.26241 2.39649 2.2014 0.682032 0.468233 0.00103243 0.0018211 0.000979203 0.000376443 0.000357468 0.000318557 0.000240977 0.000145771 1.06053e-05 9.67135e-08
threshold=14.023735362560275 40.052143590446917 79.6151532545408 12.067021620756297 38.500000000000007 50.116001621641821 62.898991969042804 54.649576392135508 31.745065150206418 91.932817382021426 46.594015582522957 15.965918814669296 15.518999749144735 21.420548905659885 21.500000000000004 12.74651051159938 20.500000000000004
decision_type=2 2 2 2 2 2 2 2 2 2 2 2 2 2 2 2 2
left_child=1 -1 3 -3 5 -5 -7 8 11 -4 12 13 14 -2 -10 -11 -13
right_child=7 2 9 4 -6 6 -8 -9 10 15 -12 16 -14 -15 -16 -17 -18
leaf_value=-0.079495290245654271 -0.076895690756261501 0.092360419082383849 0.092046679833458447 0.012018589225077116 -0.027916437538995129 0.05789309797135353 0.027168671048817636 -0.076377532332571607 -0.079007732291285382 0.090451485530926592 -0.079361234481750115 -0.076433663522695205 -0.077479058048519955 -0.078016561828859299 -0.078146686602121873 0.090635972429587944 -0.076457420855481642
leaf_weight=4.4534189850091925 3.9558332711458224 6.0239773988723746 6.546595066785815 8.4375959932804125 6.6114968657493582 12.539095044136049 8.2063872814178449 6.3945588320493689 4.1353385001420957 6.6864587068557721 4.0061769634485236 3.3436569273471832 3.7533231675624847 3.7234825491905212 3.7482846230268478 5.8351967036724091 3.5147317051887512
leaf_count=23 23 20 22 24 21 35 24 39 21 23 20 20 21 20 20 20 21
internal_value=0 0.0429191 0.0518728 0.0340064 0.0241859 0.0359898 0.0457393 -0.0775318 -0.0777763 0.0910556 -0.0785252 -0.0769706 -0.0782373 -0.0774392 -0.0785983 0.0905375 -0.0764458
internal_weight=0 65.3402 60.8868 41.8186 35.7946 29.1831 20.7455 36.5754 30.1808 19.0683 15.6431 14.5377 11.6369 7.67932 7.88362 12.5217 6.85839
internal_count=417 212 189 124 104 83 59 205 166 65 82 84 62 43 41 43 41
is_linear=0
shrinkage=0.1


Tree=27
num_leaves=16
num_cat=0
split_feature=0 2 2 0 1 0 0 2 0 0 1 0 0 2 3
split_gain=26.082 11.164 2.16314 1.54441 0.966697 0.623862 0.464946 0.00247223 0.00178361 0.000478486 0.00049391 0.000218241 0.000167045 1.87264e-06 2.64788e-07
threshold=14.023735362560275 47.756096995485237 19.633544244162319 16.083871094999825 1.0000000180025095e-35 15.486209072263707 14.97208982978117 79.6151532545408 16.013129672387397 12.270575893016755 1.0000000180025095e-35 13.039849236333184 12.723320021651292 91.932817382021426 26.500000000000004
decision_type=2 2 2 2 2 2 2 2 2 2 2 2 2 2 2
left_child=7 2 8 4 -4 -3 -6 9 -2 -1 11 -11 -12 -9 -15
right_child=1 5 3 -5 6 -7 -8 13 -10 10 12 -13 -14 14 -16
leaf_value=-0.075578917108249238 0.090184457069637972 -0.079129879339820797 0.012449939081343333 0.087857370448036043 0.031573435204531562 -0.026482057314876933 0.066653492627480895 -0.074373708064319741 0.087887526015005518 -0.076669053455475242 -0.077681057013899699 -0.075692857794006238 -0.076798367485499064 -0.07444720918196604 -0.074489160387781805
leaf_weight=5.7698324620723751 6.0312838554382306 6.5262296199798566 13.251930087804794 6.0396452546119681 7.4146752059459686 3.4356241971254349 7.7035478949546814 3.0613851994276029 7.692482978105545 4.0399642288684845 3.6149341315031052 5.2874423414468765 5.2688066363334656 2.8076189458370209 3.2417838573455811
leaf_count=38 21 39 38 22 20 16 21 22 28 24 20 34 31 20 23
internal_value=0 0.0353864 0.0553292 0.0419412 0.0321662 -0.0609728 0.0494486 -0.0758397 0.088897 -0.0763725 -0.0766239 -0.0761157 -0.0771575 -0.0744374 -0.0744697
internal_weight=0 58.0954 48.1336 34.4098 28.3702 9.96185 15.1182 33.0918 13.7238 23.981 18.2111 9.32741 8.88374 9.11079 6.0494
internal_count=417 205 150 101 79 55 41 212 49 147 109 58 51 65 43
is_linear=0
shrinkage=0.1


Tree=28
num_leaves=17
num_cat=0
split_feature=2 0 2 0 0 0 2 3 3 2 3 3 2 2 0 2
split_gain=7.34148 7.94389 3.90892 4.11591 1.0041 1.54414 1.87651 0.519358 1.94887 2.13668 1.72701 1.22199 0.48523 0.000238812 6.56456e-06 1.06442e-06
threshold=80.83452782746447 16.013129672387397 19.633544244162319 12.067021620756297 12.35564392701526 12.689820273217125 62.065440515893144 17.500000000000004 31.500000000000004 43.285958174703687 41.500000000000007 12.500000000000002 72.115193928468557 26.1176708961294 13.067646215282437 102.86019200052425
decision_type=2 2 2 2 2 2 2 2 2 2 2 2 2 2 2 2
left_child=1 2 -1 -4 -5 -6 7 11 9 -9 -10 -7 -8 -3 15 -2
right_child=14 13 3 4 5 6 12 8 10 -11 -12 -13 -14 -15 -16 -17
leaf_value=-0.077822010259706531 -0.076448819855990585 -0.076509163948089931 -0.07736604945929948 0.062162932024966137 -0.013888371585888815 0.030915807358784499 0.085243692901638135 0.021375969483795047 -0.013792219210933125 0.099374889174405567 0.042440120678193277 -0.017946705773053292 0.04573953635679822 -0.077560379708127028 -0.07657886751407722 -0.076369910230618787
leaf_weight=3.842114344239234 3.3471380025148374 5.5487147420644742 3.7532411068677893 8.5351945459842664 8.6181195080280286 12.487928763031961 6.437394976615904 7.1451340019702894 11.889720022678377 6.9071705043315887 10.102101325988768 8.6727106571197492 6.0141647011041641 3.5397258847951889 3.3798943161964417 3.4937479794025421
leaf_count=21 20 33 21 25 25 37 22 21 34 21 30 26 20 20 20 21
internal_value=0 0.0123735 0.0209697 0.025161 0.0295938 0.0260424 0.0309827 0.0233252 0.0306259 0.059715 0.0120385 0.0108895 0.066163 -0.0769186 -0.0764649 -0.0764085
internal_weight=0 103.493 94.405 90.5629 86.8096 78.2744 69.6563 57.2048 36.0441 14.0523 21.9918 21.1606 12.4516 9.08844 10.2208 6.84089
internal_count=417 356 303 282 261 236 211 169 106 42 64 63 42 53 61 41
is_linear=0
shrinkage=0.1


Tree=29
num_leaves=17
num_cat=0
split_feature=0 2 2 0 3 2 0 2 2 2 0 0 3 3 0 0
split_gain=29.424 6.27538 3.86626 2.07858 1.73737 0.591526 0.443233 0.00111202 0.00109358 0.00154075 0.000676573 0.000168345 7.7898e-05 5.88073e-05 4.52177e-05 6.51425e-06
threshold=14.023735362560275 40.052143590446917 79.6151532545408 12.067021620756297 38.500000000000007 50.116001621641821 13.325448734305455 91.932817382021426 21.420548905659885 54.649576392135508 16.498316085083591 14.97208982978117 28.500000000000004 23.500000000000004 15.6901277837287 12.74651051159938
decision_type=2 2 2 2 2 2 2 2 2 2 2 2 2 2 2 2
left_child=1 -1 3 -3 5 -5 -7 -4 14 10 11 13 -13 -10 -2 -9
right_child=8 2 7 4 -6 6 -8 15 9 -11 -12 12 -14 -15 -16 -17
leaf_value=-0.078499357527989089 -0.075622300126152342 0.088342985576126909 0.08853009141688177 0.010614016519190967 -0.024388776098976529 0.052345551654012806 0.021477801219744342 0.086786448329253391 -0.077892183541782914 -0.075219474980134357 -0.075725387475126929 -0.077285439206506518 -0.076662162968648431 -0.07735057994763414 -0.075138408718414137 0.086937273073979374
leaf_weight=4.1911312639713278 3.1075823009014112 5.5548038184642783 6.0642394423484829 8.4498556852340716 6.4513324797153464 13.849841803312303 7.0044273138046256 6.1439428925514203 4.6053353846073239 5.7948735356330863 3.108458697795867 4.6027150899171811 3.5532586723566055 3.5502973943948746 5.1011030375957489 5.3635648787021637
leaf_count=23 20 20 22 24 21 39 20 23 25 39 20 26 21 20 34 20
internal_value=0 0.0397295 0.0481448 0.0314327 0.0225914 0.0329341 0.0419778 0.0874342 -0.0763241 -0.0766505 -0.0770775 -0.0773352 -0.0770139 -0.0776564 -0.0753216 0.0868567
internal_weight=0 63.0731 58.882 41.3103 35.7555 29.3041 20.8543 17.5717 33.4236 25.2149 19.4201 16.3116 8.15597 8.15563 8.20869 11.5075
internal_count=417 212 189 124 104 83 59 65 205 151 112 92 47 45 54 43
is_linear=0
shrinkage=0.1


Tree=30
num_leaves=16
num_cat=0
split_feature=0 2 0 2 0 2 2 2 2 0 0 0 0 2 2
split_gain=22.3893 8.33503 3.15255 2.08126 2.21436 1.63172 0.371102 0.00316214 0.00180974 0.000711191 0.000666976 0.000462534 0.000132802 1.87286e-05 4.40132e-06
threshold=14.023735362560275 50.116001621641821 16.013129672387397 19.633544244162319 15.455468636574254 34.64667767996972 40.627044786278169 27.103601424645358 79.6151532545408 12.270575893016755 15.198726515158206 13.474731374479896 12.723320021651292 52.381913956326493 91.932817382021426
decision_type=2 2 2 2 2 2 2 2 2 2 2 2 2 2 2
left_child=8 2 3 -2 5 -5 -7 -4 9 -1 -3 12 -11 -14 -10
right_child=1 10 7 4 -6 6 -8 -9 14 11 -12 -13 13 -15 -16
leaf_value=-0.074043112640412856 0.086557954030144657 -0.074199879093731921 0.084679528159953804 0.067836901566983188 -0.026037843183796313 -0.0012972384011956696 0.031071035698772259 0.087717145104628538 -0.073292992242467769 -0.076215055785388022 -0.076281410496544327 -0.074679400871862797 -0.075723609766448333 -0.075383338202693426 -0.073457495057727182
leaf_weight=4.0117600709199968 5.7986257076263419 3.4801219627261153 9.796939015388487 9.702016890048986 7.5037792921066275 7.2077351510524732 6.9646089971065521 5.2707398235797873 2.4648540765047064 5.5172965228557604 2.7603863924741745 4.6471815630793563 3.1244570314884186 3.3538139015436172 4.7815253138542175
leaf_count=30 22 26 39 27 21 20 21 20 20 34 18 33 20 22 38
internal_value=0 0.0341093 0.0471566 0.031518 0.0213467 0.0362398 0.0146093 0.0857421 -0.0747612 -0.0752383 -0.0751206 -0.0755264 -0.0758545 -0.0755475 -0.0734015
internal_weight=0 58.485 52.2444 37.1768 31.3781 23.8744 14.1723 15.0677 27.9009 20.6545 6.24051 16.6427 11.9956 6.47827 7.24638
internal_count=411 214 170 111 89 68 41 59 197 139 44 109 76 42 58
is_linear=0
shrinkage=0.1


Tree=31
num_leaves=18
num_cat=0
split_feature=0 2 2 0 0 0 2 2 0 2 3 0 0 0 0 2 2
split_gain=6.40703 6.73744 3.52813 3.29661 2.79561 2.75895 2.36461 1.02191 1.19981 2.64777 1.21775 1.15209 0.438477 0.314089 0.0904852 0.000334507 0.000209198
threshold=16.013129672387397 79.6151532545408 19.633544244162319 12.092053819174401 12.342103746637614 15.486209072263707 62.898991969042804 31.745065150206418 14.141739745199628 47.32369281995954 19.500000000000004 14.945427805266403 13.844565588896351 13.136399702557314 13.092424690992745 27.103601424645358 102.09289631522036
decision_type=2 2 2 2 2 2 2 2 2 2 2 2 2 2 2 2 2
left_child=1 2 -1 -4 -5 6 7 -6 10 11 -9 -10 -8 -12 16 -2 -3
right_child=15 14 3 4 5 -7 12 8 9 -11 13 -13 -14 -15 -16 -17 -18
leaf_value=-0.076294031128394058 -0.075182024148322091 -0.076210885162466865 -0.077697400844420006 0.09526802078999648 0.037399923011423336 0.076468565741406841 0.037620046178525567 -0.040648371324671785 0.022606028422423801 0.069575622402591866 0.019987154333533749 -0.033802324553712404 0.073966016316995731 -0.0099272423521159572 -0.05463074279378391 -0.07644972707019515 -0.075057334749529261
leaf_weight=3.6125772744417182 5.8754258006811124 3.1609117090702039 3.0390695780515662 5.8047479689121237 9.3850212097167951 8.6597537100315076 7.2526247799396497 10.078506886959078 7.1841987073421496 6.8649811446666709 6.964031904935835 7.2997887134552002 6.120102196931839 7.0763838887214661 3.0427208095788956 3.223417803645134 3.1277306228876114
leaf_count=22 39 20 18 18 30 28 20 29 20 24 20 21 23 20 18 20 21
internal_value=0 0.0120667 0.0205116 0.0245909 0.0283503 0.0232981 0.0165492 0.0073571 0.00115596 0.018422 -0.0141272 -0.00582323 0.054254 0.00491027 -0.0687875 -0.0756311 -0.0756372
internal_weight=0 98.6732 89.3418 85.7292 82.6901 76.8854 68.2256 54.8529 45.4679 21.349 24.1189 14.484 13.3727 14.0404 9.33136 9.09884 6.28864
internal_count=411 352 293 271 253 235 207 164 134 65 69 41 43 40 59 59 41
is_linear=0
shrinkage=0.1


Tree=32
num_leaves=16
num_cat=0
split_feature=0 2 2 1 2 3 0 2 2 2 2 0 1 3 0
split_gain=24.8964 4.63578 3.77372 2.01323 2.65786 1.09721 0.654503 0.00119302 0.0012235 0.00114294 0.000769324 0.00121185 0.000140785 0.000229662 4.22639e-05
threshold=14.023735362560275 79.6151532545408 40.367117394723593 1.0000000180025095e-35 51.833186908282322 27.500000000000004 12.920866457784522 21.420548905659885 54.649576392135508 91.932817382021426 47.32369281995954 16.083871094999825 1.0000000180025095e-35 22.500000000000004 15.590084408259669
decision_type=2 2 2 2 2 2 2 2 2 2 2 2 2 2 2
left_child=1 2 -1 4 -4 -6 -5 14 10 -3 11 12 -9 -14 -2
right_child=7 9 3 6 5 -7 -8 8 -10 -11 -12 -13 13 -15 -16
leaf_value=-0.076353025150349529 -0.074519451800923356 0.085690890344523818 0.098778107468257381 -0.017723268159225838 0.048584874728107741 -0.0067540893423267663 0.022386219012683305 -0.076520075723073969 -0.074236728963901197 0.08382446429395865 -0.077329933411726878 -0.074011065625409114 -0.076391868119083273 -0.075199408274416901 -0.07403381349723033
leaf_weight=3.8046940863132468 2.8017024546861675 5.0757685601711264 7.009548336267474 8.4351817816495913 7.9890773594379407 6.4961619973182678 7.8585931062698355 5.7083928734064155 4.9732943549752227 9.278606712818144 3.5325507223606101 3.3519806116819373 3.4858387112617493 3.0095266848802567 4.9725994467735291
leaf_count=23 20 20 20 29 23 20 24 34 37 38 20 25 21 20 37
internal_value=0 0.0354851 0.0185748 0.0281325 0.0482286 0.0237671 0.0016218 -0.0752858 -0.0756337 0.0844844 -0.0759977 -0.0756952 -0.0761578 -0.0758394 -0.0742088
internal_weight=0 55.9476 41.5933 37.7886 21.4948 14.4852 16.2938 31.8359 24.0616 14.3544 19.0883 15.5557 12.2038 6.49537 7.7743
internal_count=411 197 139 116 63 43 53 214 157 58 120 100 75 41 57
is_linear=0
shrinkage=0.1


Tree=33
num_leaves=16
num_cat=0
split_feature=0 2 0 2 0 2 2 2 2 0 0 0 1 0 2
split_gain=19.6993 7.06893 2.88197 1.82828 1.76271 1.42487 0.358874 0.00211075 0.00179358 0.000614069 0.000587506 0.000319451 0.000151633 3.02776e-05 2.80728e-06
threshold=14.023735362560275 50.116001621641821 16.013129672387397 19.633544244162319 15.455468636574254 34.64667767996972 40.627044786278169 27.103601424645358 79.6151532545408 12.270575893016755 15.198726515158206 13.524323169454936 1.0000000180025095e-35 12.723320021651292 91.932817382021426
decision_type=2 2 2 2 2 2 2 2 2 2 2 2 2 2 2
left_child=8 2 3 -2 5 -5 -7 -4 9 -1 -3 12 -11 -14 -10
right_child=1 10 7 4 -6 6 -8 -9 14 11 -12 -13 13 -15 -16
leaf_value=-0.073292855335585702 0.083598548103506198 -0.073296140157386253 0.082026618650923977 0.062820069507601148 -0.022356535719206476 -0.0025399538496676398 0.029279188854949231 0.084625654752139359 -0.072433330167054735 -0.074614157543803739 -0.075349984738425246 -0.0739466814604198 -0.075560243815215533 -0.075112372192665811 -0.072572500109645013
leaf_weight=3.6849483773112359 5.2877522706985465 3.133693538606166 8.9031729102134687 9.7039556205272728 7.4723582863807669 7.2155584692954999 6.9671174883842468 4.8144362270832053 2.1967787966132155 5.5025476887822133 2.5069886073470116 3.8964322805404654 3.0675579160451889 2.9716972857713699 4.260409988462925
leaf_count=30 22 26 39 27 21 20 21 20 20 39 18 30 20 20 38
internal_value=0 0.0319506 0.0438402 0.0292048 0.0200329 0.0332934 0.0130909 0.0829388 -0.0739662 -0.0744527 -0.074209 -0.0747296 -0.0749939 -0.0753399 -0.0725252
internal_weight=0 56.005 50.3644 36.6467 31.359 23.8866 14.1827 13.7176 25.5804 19.1232 5.64068 15.4382 11.5418 6.03926 6.45719
internal_count=411 214 170 111 89 68 41 59 197 139 44 109 79 40 58
is_linear=0
shrinkage=0.1


Tree=34
num_leaves=15
num_cat=0
split_feature=0 2 0 2 0 0 2 0 2 0 3 0 2 0
split_gain=5.53262 5.73801 2.79381 3.15001 2.52144 2.50197 1.51415 1.61475 1.50955 1.35364 0.893413 0.738628 0.000235105 8.58598e-06
threshold=16.013129672387397 80.83452782746447 12.092053819174401 19.633544244162319 12.342103746637614 15.486209072263707 54.649576392135508 14.071866938072525 37.250429213695845 14.141739745199628 16.500000000000004 13.136399702557314 27.103601424645358 12.972280975832774
decision_type=2 2 2 2 2 2 2 2 2 2 2 2 2 2
left_child=1 2 -1 -4 -5 6 8 11 10 -10 -6 -8 -2 -3
right_child=12 13 3 4 5 -7 7 -9 9 -11 -12 -13 -14 -15
leaf_value=-0.076552583709304595 -0.074045434905245108 -0.073948327597572777 -0.075000883464069051 0.090572018749939073 0.056926925336569192 0.070786043009849739 0.042448825984055714 0.080497319610839946 -0.036854386931830761 0.0093604028381209896 0.0091508645674082314 0.0028985333144090327 -0.075168986694316139 -0.07417291964161718
leaf_weight=2.9888558089733115 5.248699411749838 4.5271700620651236 3.2337762564420691 5.5712404102087012 5.9885366261005428 8.8842419236898404 8.3278273046016746 5.7310051023960105 12.077828139066698 13.335872024297712 11.29929259419441 10.905717074871061 2.8867144584655762 2.7277717888355255
leaf_count=19 39 34 22 18 20 29 24 27 35 39 34 31 20 20
internal_value=0 0.0114593 0.01848 0.0218077 0.0256198 0.0208927 0.0143419 0.033906 0.00290424 -0.0126031 0.0257006 0.0200232 -0.0744441 -0.0740328
internal_weight=0 95.5991 88.3442 85.3553 82.1216 76.5503 67.6661 24.9645 42.7015 25.4137 17.2878 19.2335 8.13541 7.25494
internal_count=411 352 298 279 257 239 210 82 128 74 54 55 59 54
is_linear=0
shrinkage=0.1


Tree=35
num_leaves=16
num_cat=0
split_feature=0 2 2 0 0 2 3 2 2 2 0 0 3 0 0
split_gain=21.6394 4.17072 3.29067 1.86688 2.05734 2.21534 1.33191 0.00117842 0.00112284 0.000766914 0.000419031 0.000156627 0.000119442 4.50451e-05 6.39039e-08
threshold=14.023735362560275 79.6151532545408 40.367117394723593 12.127320524751529 12.459493575625709 62.898991969042804 32.500000000000007 27.103601424645358 54.649576392135508 91.932817382021426 15.965918814669296 15.590084408259669 25.500000000000004 15.007867068778006 16.723489757303355
decision_type=2 2 2 2 2 2 2 2 2 2 2 2 2 2 2
left_child=1 2 -1 -4 -5 6 -6 11 10 -3 12 -2 13 -9 -13
right_child=7 9 3 4 5 -7 -8 8 -10 -11 -12 14 -14 -15 -16
leaf_value=-0.075433807102786465 -0.073924959148512923 0.082968778309548477 0.082109817764047244 -0.033930674716311879 0.027188604259935863 -0.01844922390598842 0.082369748980797797 -0.075912998403319054 -0.073402706835096351 0.081366967122791345 -0.074075376301856566 -0.073090260856567432 -0.07506282285974103 -0.075426994019604676 -0.07306837653673269
leaf_weight=3.5172278881072989 3.6662042364478129 4.6289707273244849 5.0772402584552756 6.3924862295389167 12.039528936147695 7.048222988843917 6.8701778054237357 4.152365982532503 4.4841123819351187 8.4366229623556119 2.7261040955781928 2.4047355204820633 5.0281420946121216 3.5268741995096207 2.9976233616471291
leaf_count=23 28 20 20 20 34 22 20 26 37 38 21 20 34 23 25
internal_value=0 0.0327417 0.0170441 0.0257347 0.0168869 0.0294014 0.0472367 -0.0743654 -0.0747957 0.0819345 -0.0752004 -0.0734205 -0.0754417 -0.0756898 -0.0730781
internal_weight=0 54.0105 40.9449 37.4277 32.3504 25.9579 18.9097 28.9862 19.9176 13.0656 15.4335 9.06856 12.7074 7.67924 5.40236
internal_count=411 197 139 116 96 76 54 214 141 58 104 73 83 49 45
is_linear=0
shrinkage=0.1


Tree=36
num_leaves=14
num_cat=0
split_feature=0 2 0 0 2 3 1 2 0 0 3 1 0
split_gain=17.3976 5.41828 2.21591 1.47196 1.50514 0.766486 0.715896 0.00170308 0.000699963 0.000262506 0.000188466 0.000127226 1.08442e-06
threshold=14.023735362560275 47.879471599881334 16.013129672387397 15.455468636574254 34.64667767996972 17.500000000000004 1.0000000180025095e-35 79.263605846346053 12.292334655971423 13.474731374479896 29.500000000000004 1.0000000180025095e-35 12.313173936207784
decision_type=2 2 2 2 2 2 2 2 2 2 2 2 2
left_child=7 2 3 4 6 -3 -2 8 -1 11 -4 -10 -9
right_child=1 5 10 -5 -6 -7 -8 12 9 -11 -12 -13 -14
leaf_value=-0.072496379149219567 0.041782113848772118 -0.0098601880496254311 0.079764736219180898 -0.0062000750043659254 0.016885959606794176 -0.076020989840475006 0.088019386031125357 -0.07183295699944163 -0.073981186880579128 -0.073389711469705271 0.080598368791803765 -0.074695080533393743 -0.071746336691458593
leaf_weight=3.5318925604224267 6.6531877517700213 2.896971382200717 7.6169197261333448 8.5073922872543317 12.579716563224791 4.4268938973546028 6.7418629825115204 2.6003543585538855 4.8815428465604764 4.0246552824974051 4.2114167809486389 5.1091556400060654 3.2537736147642136
leaf_count=32 22 18 37 26 35 34 22 26 37 33 20 36 33
internal_value=0 0.0300734 0.0427132 0.0299016 0.0417259 -0.0498509 0.0650538 -0.0732618 -0.0737545 -0.0740716 0.0800615 -0.0743463 -0.0717848
internal_weight=0 53.6344 46.3105 34.4822 25.9748 7.32387 13.3951 23.4014 17.5472 14.0154 11.8283 9.9907 5.85413
internal_count=411 214 162 105 79 52 44 197 138 106 57 73 59
is_linear=0
shrinkage=0.1


Tree=37
num_leaves=16
num_cat=0
split_feature=0 2 2 0 0 0 2 0 2 0 0 3 2 0 2
split_gain=4.77692 4.88672 1.81051 2.53779 2.20417 2.48103 1.3275 1.53417 1.17766 1.08728 0.77084 0.437912 0.0002107 5.71126e-06 1.36439e-08
threshold=16.013129672387397 80.83452782746447 21.420548905659885 12.092053819174401 12.342103746637614 15.486209072263707 54.649576392135508 13.643061943111446 37.250429213695845 14.141739745199628 13.092424690992745 22.500000000000004 31.745065150206418 12.972280975832774 16.126005831307669
decision_type=2 2 2 2 2 2 2 2 2 2 2 2 2 2 2
left_child=1 2 -1 -4 -5 6 8 10 11 -10 -8 -6 14 -3 -2
right_child=12 13 3 4 5 -7 7 -9 9 -11 -12 -13 -14 -15 -16
leaf_value=-0.046174600827643041 -0.073069385961165065 -0.072978827139898672 -0.075281532422871167 0.085793036949908114 0.041467375567590919 0.070380011551881713 0.033159806348290667 0.063455170639031722 -0.033635577730786743 0.0079406765973303161 -0.011969658025394646 0.008085851553859361 -0.074233481344291308 -0.073172947222969686 -0.073058972998482852
leaf_weight=4.2925175577402106 2.5183314755558959 4.0293792933225623 2.6785053983330718 5.3301799893379203 7.106085240840911 8.3973392099142057 7.9369447678327578 9.1664523333311063 11.94507932662964 13.286078825592993 7.2347904145717621 8.7920473814010602 2.2210617065429688 2.4294402822852135 2.5149263441562653
leaf_count=27 21 34 19 18 23 28 23 39 35 39 20 27 17 20 21
internal_value=0 0.0108432 0.0171318 0.0204509 0.0236887 0.0192072 0.0126434 0.0311547 0.00168937 -0.0117426 0.0116394 0.0230066 -0.0734222 -0.0730518 -0.0730642
internal_weight=0 92.6248 86.166 81.8735 79.195 73.8648 65.4675 24.3382 41.1293 25.2312 15.1717 15.8981 7.25432 6.45882 5.03326
internal_count=411 352 298 271 252 234 206 82 124 74 43 50 59 54 42
is_linear=0
shrinkage=0.1


Tree=38
num_leaves=15
num_cat=0
split_feature=0 2 2 0 2 0 2 2 2 0 0 2 3 0
split_gain=18.8182 3.78801 1.96302 1.37645 1.55602 1.11659 0.00111221 0.00104843 0.000798599 0.00046016 0.000133119 0.000110589 8.53276e-05 1.5421e-07
threshold=14.023735362560275 79.6151532545408 41.422223815218238 12.127320524751529 54.649576392135508 13.136399702557314 27.103601424645358 54.649576392135508 91.932817382021426 15.965918814669296 15.590084408259669 34.64667767996972 22.500000000000004 16.723489757303355
decision_type=2 2 2 2 2 2 2 2 2 2 2 2 2 2
left_child=1 2 -1 -4 -5 -6 10 9 -3 11 -2 -8 -13 -12
right_child=6 8 3 4 5 -7 7 -9 -10 -11 13 12 -14 -15
leaf_value=-0.043285750190185483 -0.073076965271962668 0.080973894295936072 0.077929693273750072 0.044145462737478547 -0.027739492561191403 0.021255624011119353 -0.074143172548512826 -0.072565360802098147 0.079259516467801119 -0.073145858226947302 -0.072272573569269832 -0.075132099834890193 -0.074504250879516148 -0.072236568044972471
leaf_weight=4.9751407727599135 3.3026278540492076 4.2240869998931867 4.1475005745887747 12.343559771776201 8.7204804718494433 9.9687087535858137 3.1044080331921604 4.0030314996838561 7.6165398359298706 2.4358711764216414 2.1462186649441719 4.6282545626163465 4.0664724856615067 2.6685375198721886
leaf_count=29 28 20 18 35 27 30 23 37 38 21 20 31 29 25
internal_value=0 0.0301655 0.0155088 0.0238235 0.0165922 -0.00160577 -0.0735617 -0.0739951 0.0798711 -0.0743972 -0.072588 -0.0746555 -0.0748385 -0.0722526
internal_weight=0 51.996 40.1554 35.1802 31.0327 18.6892 26.3554 18.238 11.8406 14.235 8.11738 11.7991 8.69473 4.81476
internal_count=411 197 139 110 92 57 214 141 58 104 73 83 60 45
is_linear=0
shrinkage=0.1


Tree=39
num_leaves=14
num_cat=0
split_feature=0 2 0 2 0 2 3 2 0 0 3 1 0
split_gain=15.4017 4.61329 2.04132 1.37446 1.31732 0.849957 0.732286 0.00161568 0.000724646 0.000229099 0.000128592 0.000113111 7.60374e-07
threshold=14.023735362560275 47.879471599881334 16.013129672387397 19.633544244162319 15.455468636574254 34.64667767996972 17.500000000000004 79.263605846346053 12.292334655971423 13.524323169454936 29.500000000000004 1.0000000180025095e-35 12.313173936207784
decision_type=2 2 2 2 2 2 2 2 2 2 2 2 2
left_child=7 2 3 -2 5 -5 -3 8 -1 11 -4 -10 -9
right_child=1 6 10 4 -6 -7 -8 12 9 -11 -12 -13 -14
leaf_value=-0.071791563612329065 0.07967306301211606 -0.0088055932224872426 0.077909251662062612 0.054837421124462118 -0.016386985652936625 0.015302873891138944 -0.075284463907143884 -0.071165989672151916 -0.07337929923608251 -0.07276624256511903 0.078634812915642782 -0.074061964056209614 -0.071088975177488842
leaf_weight=3.1622334793210092 4.4709665626287451 2.8010084852576247 6.8529917150735837 9.5692384839057976 7.3883093595504752 12.596401721239088 4.0568241775035858 2.3072279915213576 4.7958860620856267 3.354989528656005 3.7955710142850876 4.9140194579958916 2.884992279112339
leaf_count=32 22 18 37 27 21 35 34 26 39 30 20 37 33
internal_value=0 0.0282343 0.0399573 0.0279988 0.0201814 0.0323705 -0.0481319 -0.0726586 -0.0731499 -0.0734786 0.0781679 -0.0737248 -0.0711232
internal_weight=0 51.5313 44.6735 34.0249 29.5539 22.1656 6.85783 21.4193 16.2271 13.0649 10.6486 9.70991 5.19222
internal_count=411 214 162 105 83 62 52 197 138 106 57 76 59
is_linear=0
shrinkage=0.1


Tree=40
num_leaves=16
num_cat=0
split_feature=0 2 0 0 0 2 0 2 0 1 1 0 2 0 2
split_gain=4.15313 4.17323 1.19167 1.37517 3.34288 1.29577 1.4226 0.701197 1.77869 2.01561 1.27599 0.604922 0.000206374 3.8066e-06 8.69267e-09
threshold=16.013129672387397 80.83452782746447 15.486209072263707 12.127320524751529 12.342103746637614 54.649576392135508 13.643061943111446 41.422223815218238 14.20544845361024 1.0000000180025095e-35 1.0000000180025095e-35 13.092424690992745 31.745065150206418 12.972280975832774 16.126005831307669
decision_type=2 2 2 2 2 2 2 2 2 2 2 2 2 2 2
left_child=1 2 3 -1 -5 7 11 8 -6 -10 -9 -7 14 -3 -2
right_child=12 13 -4 4 5 6 -8 10 9 -11 -12 -13 -14 -15 -16
leaf_value=-0.049217681819283786 -0.072226593538798331 -0.072144614556034811 0.05000271556994116 0.10353513179380716 0.052352985853759054 0.028956033284080959 0.060652254098112902 -0.039710760138515905 0.030519253605719589 -0.036883817186581284 0.012753216049967125 -0.011084128220746378 -0.07344364051101758 -0.0723127576849589 -0.072217777135607619
leaf_weight=3.5219703614711753 2.2381749600172034 3.5781996250152579 9.1539226174354535 4.0066480934619895 7.1606665551662472 7.8904993385076541 8.6519747078418714 9.9976144284009933 8.0552840903401375 9.8758796229958534 8.6438933163881302 7.2309831082820892 2.0024650692939758 2.1586982607841492 2.2351492494344711
leaf_count=23 21 34 34 14 26 23 39 31 28 35 25 20 17 20 21
internal_value=0 0.0103166 0.0159401 0.0117846 0.0147889 0.00952168 0.0283127 -0.00069311 0.010221 -0.00660408 -0.0153837 0.00980912 -0.0725999 -0.0722079 -0.0722222
internal_weight=0 89.9262 84.1893 75.0354 71.5134 67.5068 23.7735 43.7333 25.0918 17.9312 18.6415 15.1215 6.47579 5.7369 4.47332
internal_count=411 352 298 264 241 227 82 145 89 63 56 43 59 54 42
is_linear=0
shrinkage=0.1


Tree=41
num_leaves=15
num_cat=0
split_feature=0 2 1 2 0 2 2 2 2 2 0 0 0 0
split_gain=16.4562 3.44859 1.81024 1.72665 0.79854 1.00892 0.306379 0.000990739 0.000968049 0.000887948 0.000327028 0.000142154 7.08257e-05 6.13235e-10
threshold=14.023735362560275 79.6151532545408 1.0000000180025095e-35 47.756096995485237 12.648403240866386 55.039812828918464 59.235756953178239 29.257749471403788 54.649576392135508 91.932817382021426 15.789294158796153 16.013129672387397 14.97208982978117 16.915537198742978
decision_type=2 2 2 2 2 2 2 2 2 2 2 2 2 2
left_child=1 2 4 -4 -1 -6 -5 11 10 -3 12 -2 -9 -13
right_child=7 9 3 6 5 -7 -8 8 -10 -11 -12 13 -14 -15
leaf_value=0.05803154297823522 -0.072364626037246124 0.079385186478904995 -0.061779888537750675 0.023498291801103601 0.050349149331370441 -0.0043888758950117908 -0.0076062028701997658 -0.074253994005997137 -0.071875419782244349 0.077486607877107427 -0.072742005777002197 -0.071512242709674587 -0.073719744961539255 -0.07151478644660296
leaf_weight=8.1613640114665049 4.068490810692313 3.8476341813802701 4.6920518279075649 6.8767176121473295 5.802740514278411 8.022895932197569 5.8697995245456696 5.1925525367259997 3.5922218412160865 6.8470913916826248 2.6153604388236991 1.8950191438198092 4.7526612654328346 1.8958832025527952
leaf_count=30 38 20 23 21 20 23 22 38 37 38 24 20 37 20
internal_value=0 0.0278059 0.0141441 -0.00991654 0.0332273 0.0185852 0.0091746 -0.072875 -0.073323 0.0781697 -0.073737 -0.0719541 -0.0739987 -0.0715135
internal_weight=0 50.1203 39.4256 17.4386 21.987 13.8256 12.7465 24.0122 16.1528 10.6947 12.5606 7.85939 9.94521 3.7909
internal_count=411 197 139 66 73 43 43 214 136 58 99 78 75 40
is_linear=0
shrinkage=0.1


Tree=42
num_leaves=15
num_cat=0
split_feature=0 2 0 2 0 1 2 2 0 0 1 0 2 2
split_gain=13.5344 3.98621 1.78057 1.2688 1.11121 0.822523 0.69335 0.00143193 0.000595134 0.000210953 0.00012961 4.3287e-05 1.92344e-06 6.13484e-07
threshold=14.023735362560275 47.756096995485237 16.013129672387397 19.633544244162319 15.455468636574254 1.0000000180025095e-35 51.833186908282322 79.263605846346053 12.342103746637614 13.524323169454936 1.0000000180025095e-35 15.076084794944235 25.458942031550521 91.932817382021426
decision_type=2 2 2 2 2 2 2 2 2 2 2 2 2 2
left_child=7 2 3 -2 5 -5 -3 8 -1 10 -10 -8 -4 -9
right_child=1 6 12 4 -6 -7 11 13 9 -11 -12 -13 -14 -15
leaf_value=-0.071353047933999589 0.078447583008237759 -0.0086759613025700431 0.076378963220007992 0.0099119926835219176 -0.014173715109383644 0.048906586240879901 -0.071626545871363842 -0.070497389408298597 -0.072766676822859977 -0.072181785601691265 -0.07353888159978271 -0.072294348523727792 0.076285756101620861 -0.0705739237671522
leaf_weight=3.1875069662928608 4.1670610457658759 3.1239775419235221 5.6604791581630689 10.094815939664844 7.3475467264652243 11.654090493917465 1.9299217984080317 1.6147699281573284 4.4352216646075231 3.0775572061538687 4.2624852582812309 1.9528025388717649 3.6363125592470169 2.9805282652378082
leaf_count=35 22 13 34 28 21 33 21 21 39 30 34 20 22 38
internal_value=0 0.0261465 0.0376528 0.0268395 0.0194484 0.0308071 -0.0437458 -0.072091 -0.0725652 -0.0728933 -0.0731451 -0.0719624 0.0763425 -0.070547
internal_weight=0 49.567 42.5603 33.2635 29.0965 21.7489 7.0067 19.5581 14.9628 11.7753 8.69771 3.88272 9.29679 4.5953
internal_count=411 214 160 104 82 61 54 197 138 103 73 41 56 59
is_linear=0
shrinkage=0.1


Tree=43
num_leaves=18
num_cat=0
split_feature=0 2 0 3 3 3 3 0 0 3 2 3 2 0 0 2 2
split_gain=3.61483 3.59081 0.794925 1.09814 1.26713 2.53531 1.70084 1.48705 1.16534 1.03677 1.34098 1.03265 0.415253 0.0837539 0.000249768 0.000199785 5.57917e-09
threshold=16.013129672387397 79.6151532545408 15.455468636574254 41.500000000000007 15.500000000000002 19.500000000000004 10.500000000000002 13.474731374479896 12.689820273217125 35.500000000000007 47.879471599881334 6.5000000000000009 46.594015582522957 13.136399702557314 12.270575893016755 31.745065150206418 16.126005831307669
decision_type=2 2 2 2 2 2 2 2 2 2 2 2 2 2 2 2 2
left_child=1 2 3 4 6 -6 11 8 -7 10 -9 -1 -5 14 -3 16 -2
right_child=15 13 -4 12 5 7 -8 9 -10 -11 -12 -13 -14 -15 -16 -17 -18
leaf_value=0.025292246779164536 -0.071499522991786843 -0.071440654127858091 0.041062714719208408 0.022124811197870083 -0.068671601486443828 -0.0025400079301880658 0.054644521871257269 -0.027751673344286978 0.058254506408950829 -0.047068036616060543 0.039205325843258469 -0.030893536070892222 0.061013809861922036 -0.04719944961024209 -0.073002191079799217 -0.072765180037299246 -0.071492023389171405
leaf_weight=7.4306370615959185 1.9852565824985497 2.2447523698210707 10.497805528342722 5.7803698778152448 5.4085410088300696 5.6139216199517268 10.345306865870951 6.3185066282749194 7.1926380693912506 5.9645184949040404 5.6798653304576874 5.8437152430415154 5.230092816054821 1.9949192479252813 1.8840203285217283 1.803314611315727 1.9825732111930845
leaf_count=26 21 24 39 20 20 22 36 23 21 20 23 23 20 17 18 17 21
internal_value=0 0.009821 0.0153828 0.0115755 0.00623174 -0.00553031 0.0242475 0.00556844 0.0316044 -0.0129938 0.00394486 0.000557803 0.0405975 -0.064024 -0.0721532 -0.0718924 -0.0714958
internal_weight=0 87.4296 81.3059 70.8081 59.7977 36.178 23.6197 30.7695 12.8066 17.9629 11.9984 13.2744 11.0105 6.12369 4.12877 5.77114 3.96783
internal_count=411 352 293 254 214 129 85 109 43 66 46 49 40 59 42 59 42
is_linear=0
shrinkage=0.1


Tree=44
num_leaves=16
num_cat=0
split_feature=0 2 1 2 0 2 2 2 2 2 0 0 2 3 0
split_gain=14.5538 3.10491 1.49406 1.54218 0.71889 0.828561 0.270228 0.000985063 0.000961235 0.000882546 0.000305394 0.00012191 6.99484e-05 5.15299e-05 3.61256e-10
threshold=14.023735362560275 79.6151532545408 1.0000000180025095e-35 47.756096995485237 12.648403240866386 55.039812828918464 59.235756953178239 29.257749471403788 91.932817382021426 54.649576392135508 15.789294158796153 16.013129672387397 35.429290352124418 22.500000000000004 16.915537198742978
decision_type=2 2 2 2 2 2 2 2 2 2 2 2 2 2 2
left_child=1 2 4 -4 -1 -6 -5 11 -3 10 12 -2 -9 -14 -13
right_child=7 8 3 6 5 -7 -8 9 -10 -11 -12 14 13 -15 -16
leaf_value=0.054573480920913513 -0.071722598562550116 0.078064153927191168 -0.059276938289605202 0.022497721182738573 0.045922851723497374 -0.0039765836093709041 -0.0068855609337228688 -0.072949224718216715 0.0759868964911663 -0.071298721992702915 -0.072151390424465528 -0.070887287868431167 -0.073831532345591783 -0.073285486139090597 -0.070889361543847354
leaf_weight=7.9864008277654674 3.6584607437253025 3.4983085691928846 4.4711726307868984 6.850898861885069 5.7056192606687528 7.9840459227561951 5.7625912874937057 2.3281487599015218 6.1331266313791275 3.2350381985306731 2.3667600825428954 1.6798427253961565 3.7872918620705605 3.1787654906511307 1.6805731505155561
leaf_count=30 38 20 23 21 20 23 22 20 38 37 24 20 29 26 20
internal_value=0 0.0259269 0.0133003 -0.00881413 0.0307304 0.0168207 0.00907369 -0.0722999 0.0767414 -0.0727601 -0.0731655 -0.0713232 -0.0734238 -0.0735824 -0.0708883
internal_weight=0 48.3922 38.7607 17.0847 21.6761 13.6897 12.6135 21.9149 9.63144 14.896 11.661 7.01888 9.29421 6.96606 3.36042
internal_count=411 197 139 66 73 43 43 214 58 136 99 78 75 55 40
is_linear=0
shrinkage=0.1


Tree=45
num_leaves=16
num_cat=0
split_feature=0 2 2 0 2 0 0 3 3 0 2 0 2 0 3
split_gain=13.8108 4.0495 3.46057 1.61054 1.37778 1.41723 0.972639 0.377151 0.346763 0.336 0.00144594 0.000441295 0.000221462 4.16176e-05 3.72607e-07
threshold=14.530831327027107 34.64667767996972 47.756096995485237 15.553756348850767 40.847662980926522 15.590084408259669 15.178204431921793 18.500000000000004 5.5000000000000009 14.023735362560275 78.653721961365747 12.342103746637614 51.341096718508084 13.343340591877757 26.500000000000004
decision_type=2 2 2 2 2 2 2 2 2 2 2 2 2 2 2
left_child=1 -1 4 -4 5 6 -2 -7 -3 10 11 -10 -13 -14 -12
right_child=2 8 3 -5 -6 7 -8 -9 9 -11 14 12 13 -15 -16
leaf_value=0.013344411977808782 0.046890015610874976 -0.038694479021208983 -0.076492979718747037 0.028651525668061419 0.098146546044716787 0.048838422557929383 -0.0063066658215786961 0.088887037239656602 -0.071041271757920521 -0.10256655557181149 -0.070026225026852948 -0.073147087500431043 -0.072350374618543198 -0.071800675215541329 -0.070085084146895224
leaf_weight=6.8736720308661488 7.2715595215559059 2.4755051955580738 3.3681016713380805 2.5671682059764862 5.4434092193841925 4.1062174737453443 6.5177418440580368 5.5026174187660217 2.6360278800129953 4.4714674651622763 1.8489495292305935 3.4162958487868291 3.4356902316212654 2.2988528609275818 2.5711910650134087
leaf_count=34 24 23 31 14 20 23 20 33 31 22 27 29 32 24 37
internal_value=0 -0.0540553 0.0385222 -0.0310151 0.0528322 0.0422902 0.0217457 0.0717728 -0.0740642 -0.0782984 -0.0716029 -0.0721813 -0.0725097 -0.07213 -0.0700605
internal_weight=0 30.0277 34.7768 5.93527 28.8415 23.3981 13.7893 9.60883 23.154 20.6785 16.207 11.7869 9.15084 5.73454 4.42014
internal_count=424 259 165 45 120 100 44 56 225 202 180 116 85 56 64
is_linear=0
shrinkage=0.1


Tree=46
num_leaves=17
num_cat=0
split_feature=0 2 3 3 0 3 0 3 3 3 2 3 3 0 2 2
split_gain=4.4985 4.05663 1.70331 1.2419 1.8222 1.4729 1.47129 1.33089 1.03412 1.1772 0.797427 0.537329 0.53249 0.228277 0.174888 0.00782017
threshold=15.789294158796153 79.263605846346053 41.500000000000007 15.500000000000002 12.37669922733866 21.500000000000004 13.092424690992745 10.500000000000002 35.500000000000007 27.500000000000004 43.285958174703687 34.500000000000007 17.500000000000004 13.427353097042358 42.379856855247333 99.212913092146763
decision_type=2 2 2 2 2 2 2 2 2 2 2 2 2 2 2 2
left_child=1 2 3 7 -5 -6 -7 10 9 -8 -1 12 -2 15 -4 -3
right_child=11 13 14 4 5 6 8 -9 -10 -11 -12 -13 -14 -15 -16 -17
leaf_value=-0.018478201144531688 -0.084853207948602169 -0.078932137019920287 0.035600331110807584 -0.055897625690928071 -0.025460029921096805 0.063643113506307927 -0.009045588070407503 0.057221136043361313 -0.025706891514627628 0.054337062829396592 0.026892792879112101 -0.10995238275035124 -0.021124945653222666 -0.032780641763324063 0.05949113922371535 -0.070867558441218795
leaf_weight=6.0025500357151094 2.5239556208252898 2.0840964093804351 4.8764314725995055 5.1172634437680236 9.3879999890923482 6.1073661148548153 5.5495158880949038 9.7259452566504461 6.3311354517936698 6.2085080742835999 10.922943659126757 2.2722297534346581 2.7285513803362846 1.8135127276182172 8.2443033233284932 2.8422161042690277
leaf_count=23 25 20 17 24 32 19 21 34 23 25 39 18 24 16 30 34
internal_value=0 0.0113372 0.0177315 0.0111302 -0.000309293 0.00816068 0.0212052 0.0277419 0.00687703 0.0244219 0.0108022 -0.0693238 -0.0517479 -0.0631131 0.0506119 -0.0742793
internal_weight=0 85.2138 78.474 65.3532 38.7018 33.5845 24.1965 26.6514 18.0892 11.758 16.9255 7.52474 5.25251 6.73983 13.1207 4.92631
internal_count=424 357 287 240 144 120 88 96 69 46 62 67 49 70 47 54
is_linear=0
shrinkage=0.1


Tree=47
num_leaves=17
num_cat=0
split_feature=0 2 1 0 0 2 3 2 2 2 2 0 2 2 0 0
split_gain=12.8445 3.70843 1.62359 2.19333 0.737543 0.369982 0.42093 0.0135288 0.000872007 0.000595834 0.00045064 0.000539397 9.4323e-05 7.01099e-05 1.75594e-05 1.04579e-05
threshold=14.023735362560275 79.263605846346053 1.0000000180025095e-35 12.187887642543794 12.920866457784522 55.039812828918464 23.500000000000004 91.932817382021426 21.420548905659885 54.649576392135508 47.018837647864046 15.758312587585225 34.64667767996972 65.066796953887732 16.013129672387397 13.039849236333184
decision_type=2 2 2 2 2 2 2 2 2 2 2 2 2 2 2 2
left_child=1 2 5 -4 -5 -1 -7 -3 14 10 11 12 -10 -11 -2 -9
right_child=8 7 3 4 -6 6 -8 15 9 13 -12 -13 -14 -15 -16 -17
leaf_value=0.043172305347253859 -0.070766641700391472 0.082414102228894393 0.064390331502574741 -0.050631753733359798 -0.0070931740458643686 0.034559746822970069 -0.0015017888736054284 0.074655825074404908 -0.07212379718415704 -0.070524773713205161 -0.073549248787143959 -0.070744058214613686 -0.07288365691338583 -0.071440352205506513 -0.0703479122975747 0.074906106119262253
leaf_weight=9.7034173607826251 1.69162664562464 3.5003102719783765 3.1861368194222477 7.0469627901911727 8.6872315630316717 6.7851542532443982 6.1895583868026733 3.8702308237552643 2.790507033467291 1.6956212818622582 2.9892076700925818 2.1339392811059952 3.9404173642396927 1.6503899171948431 2.4547439739108086 2.9360136687755585
leaf_count=37 21 21 15 29 28 20 20 27 27 22 24 27 34 19 33 20
internal_value=0 0.0236622 0.0103574 -0.0112717 -0.026593 0.0284025 0.0173567 0.077362 -0.0718042 -0.0721548 -0.0724875 -0.0721294 -0.0725686 -0.0709764 -0.0705187 0.0747638
internal_weight=0 51.905 41.5985 18.9203 15.7342 22.6781 12.9747 10.3066 19.3465 15.2001 11.8541 8.86486 6.73092 3.34601 4.14637 6.80624
internal_count=424 217 149 72 57 77 40 68 207 153 112 88 61 41 54 47
is_linear=0
shrinkage=0.1


Tree=48
num_leaves=16
num_cat=0
split_feature=0 2 2 0 2 0 0 3 3 0 2 0 2 0 3
split_gain=11.913 3.75092 3.05787 1.41538 1.23039 1.27858 0.844166 0.380475 0.350408 0.267183 0.00125098 0.000348949 0.000195316 3.13661e-05 2.90856e-07
threshold=14.530831327027107 34.64667767996972 47.756096995485237 15.553756348850767 40.847662980926522 15.590084408259669 15.178204431921793 18.500000000000004 5.5000000000000009 14.023735362560275 78.653721961365747 12.342103746637614 51.341096718508084 13.343340591877757 26.500000000000004
decision_type=2 2 2 2 2 2 2 2 2 2 2 2 2 2 2
left_child=1 -1 4 -4 5 6 -2 -7 -3 10 11 -10 -13 -14 -12
right_child=2 8 3 -5 -6 7 -8 -9 9 -11 14 12 13 -15 -16
leaf_value=0.01219813225183195 0.043696181803459133 -0.036617571809745397 -0.075823126094649571 0.024342638741308098 0.09270237377249449 0.045219249348460944 -0.0060198899607645795 0.087067907049074134 -0.070654901679307033 -0.099594878038956738 -0.069591988015213629 -0.072635160001127935 -0.071841691682541953 -0.071344476229347586 -0.069647357939044821
leaf_weight=6.8094228804111507 7.1829613596200996 2.3537832945585277 3.1500287614762774 2.5548584833741188 5.3100185692310324 3.8479398190975171 6.5113408118486404 4.9896228015422821 2.4280382171273258 4.2560582756996146 1.6301079243421548 3.1728315949439985 3.1684608682990074 2.1160635352134705 2.2695582620799541
leaf_count=34 24 23 31 14 20 23 20 33 31 22 27 29 32 24 37
internal_value=0 -0.0524434 0.0357324 -0.0309652 0.0493989 0.0391937 0.0200573 0.0688467 -0.073017 -0.0775165 -0.071161 -0.0717116 -0.072015 -0.0716426 -0.0696242
internal_weight=0 28.2043 33.5468 5.70489 27.8419 22.5319 13.6943 8.83756 21.3949 19.0411 14.7851 10.8854 8.45736 5.28452 3.89967
internal_count=424 259 165 45 120 100 44 56 225 202 180 116 85 56 64
is_linear=0
shrinkage=0.1


Tree=49
num_leaves=17
num_cat=0
split_feature=0 2 3 2 2 0 0 2 2 3 2 3 1 0 0 2
split_gain=3.80825 3.38776 1.5125 1.3001 1.7375 3.17838 1.49256 0.936739 0.779094 0.54098 0.510212 0.493451 0.324841 0.246993 0.115637 0.00604298
threshold=15.789294158796153 79.263605846346053 41.500000000000007 31.745065150206418 46.144104424926354 14.141739745199628 14.469362208900755 68.177049994009664 59.083627980203318 35.500000000000007 46.594015582522957 17.500000000000004 1.0000000180025095e-35 13.474731374479896 14.469362208900755 99.212913092146763
decision_type=2 2 2 2 2 2 2 2 2 2 2 2 2 2 2 2
left_child=1 2 3 14 6 7 -5 8 -6 11 -4 -2 -7 15 -1 -3
right_child=9 13 10 4 5 12 -8 -9 -10 -11 -12 -13 -14 -15 -16 -17
leaf_value=0.03553034155534246 -0.083835186641941117 -0.077804709665745597 0.028569625518762576 0.0068249177029248986 0.0050295739887682251 0.051896594715573209 -0.04858716097168584 0.029764863753508449 -0.035784873504476421 -0.11239602084081471 0.068413466563682107 -0.021312745517967534 0.090002366190121016 -0.027804251674823408 0.058679871870777715 -0.070334265381236549
leaf_weight=4.7938129007816297 2.296155519783496 1.8593577444553364 6.736436262726782 10.170680090785028 11.559441372752195 5.1241163164377195 9.311148598790167 7.6846807748079291 7.8551146984100333 1.8655881956219671 6.1461027860641479 2.8036637604236603 3.9706577509641647 1.6152415350079534 3.9241916462779045 2.5927513912320137
leaf_count=23 25 20 23 34 37 27 27 27 25 15 24 27 21 15 19 35
internal_value=0 0.0106508 0.0163001 0.0100426 0.00441992 0.0173805 -0.0196587 0.000213226 -0.0114839 -0.0663187 0.0475786 -0.049463 0.0685331 -0.0613013 0.0459505 -0.0734542
internal_weight=0 83.3437 77.2764 64.3938 55.6758 36.194 19.4818 27.0992 19.4146 6.96541 12.8825 5.09982 9.09477 6.06735 8.718 4.45211
internal_count=424 357 287 240 198 137 61 89 62 67 47 52 48 70 42 55
is_linear=0
shrinkage=0.1


Tree=50
num_leaves=17
num_cat=0
split_feature=0 2 1 0 0 2 3 2 2 2 2 0 1 2 0 0
split_gain=11.5451 3.27408 1.37841 1.8442 0.679049 0.313146 0.36431 0.0104437 0.000768181 0.000434208 0.000390256 0.000472397 7.55967e-05 6.62269e-05 2.57742e-05 1.12841e-05
threshold=14.023735362560275 79.263605846346053 1.0000000180025095e-35 12.187887642543794 12.920866457784522 55.039812828918464 23.500000000000004 91.932817382021426 21.420548905659885 54.649576392135508 47.018837647864046 15.758312587585225 1.0000000180025095e-35 65.066796953887732 16.013129672387397 13.039849236333184
decision_type=2 2 2 2 2 2 2 2 2 2 2 2 2 2 2 2
left_child=1 2 5 -4 -5 -1 -7 -3 14 10 11 12 -10 -11 -2 -9
right_child=8 7 3 4 -6 6 -8 15 9 13 -12 -13 -14 -15 -16 -17
leaf_value=0.04059046032784322 -0.070409713675972416 0.080781770591772245 0.060322300220237518 -0.047700817806510656 -0.0054470136140854298 0.032690137321835198 -0.00095737969446007491 0.073579333497221497 -0.072472958955973707 -0.070214800471389976 -0.073028257837198893 -0.070278501903419374 -0.071772074372011621 -0.071137303991699832 -0.069876418925511816 0.073854240929458553
leaf_weight=9.579266697168352 1.5568569600582152 3.1646996885538083 3.1088179349899319 6.8105635941028586 8.6137611642479879 6.781868174672125 6.1231390237808228 3.4474261701107025 2.745247654616831 1.5695928186178201 2.8034422472119322 1.8975849002599714 3.502019576728344 1.5434773117303846 2.1686246171593666 2.6338616460561752
leaf_count=37 21 21 15 29 28 20 20 27 25 22 24 27 36 19 33 20
internal_value=0 0.0223669 0.0102495 -0.00994206 -0.0241041 0.0268928 0.0167251 0.0761229 -0.071376 -0.0717143 -0.0720106 -0.0716603 -0.0720801 -0.0706722 -0.0700993 0.0736984
internal_weight=0 50.2634 41.0174 18.5331 15.4243 22.4843 12.905 9.24599 17.7868 14.0614 10.9483 8.14485 6.24727 3.11307 3.72548 6.08129
internal_count=424 217 149 72 57 77 40 68 207 153 112 88 61 41 54 47
is_linear=0
shrinkage=0.1


Tree=51
num_leaves=16
num_cat=0
split_feature=0 0 2 2 3 3 3 3 2 2 0 0 1 2 3
split_gain=10.6179 3.35197 3.51707 1.32686 0.976763 0.33445 0.343643 0.133602 0.00150357 0.00033061 0.000333793 0.000186492 0.000121426 5.03739e-07 6.27403e-08
threshold=14.023735362560275 15.789294158796153 47.32369281995954 24.568399189009476 32.500000000000007 33.500000000000007 17.500000000000004 15.500000000000002 79.6151532545408 39.086627158514112 12.313173936207784 13.524323169454936 1.0000000180025095e-35 91.932817382021426 28.500000000000004
decision_type=2 2 2 2 2 2 2 2 2 2 2 2 2 2 2
left_child=8 2 3 -2 -5 6 -3 -4 9 -1 -11 12 -12 -10 -15
right_child=1 5 7 4 -6 -7 -8 -9 13 10 11 -13 -14 14 -16
leaf_value=-0.072632568479032586 -0.015883915540869747 0.083941784638277395 -0.043802680443997294 0.053628639556950179 0.0077943656746448488 0.10257362236091215 0.038682395221830534 -0.0744947900490288 -0.069187854504508386 -0.070308508111328452 -0.07140048329123426 -0.070735773390715392 -0.072251855174996313 -0.069286053736352882 -0.069254672322648592
leaf_weight=2.3201452568173435 6.6313327252864864 3.4619706571102125 2.3380507677793494 11.998640149831774 7.5911134481430045 2.9146423265337944 3.2548445612192154 3.60518504306674 1.0516724623739713 2.52198577299714 3.0919591560959798 1.8809552974998949 3.6560988128185272 1.2540211454033854 1.2950009219348428
leaf_count=22 28 25 18 34 22 20 22 38 20 35 34 24 35 23 24
internal_value=0 0.0225334 0.00703658 0.0227796 0.0358677 0.0742852 0.0620099 -0.0624206 -0.0710613 -0.0715465 -0.0713205 -0.0716163 -0.0718618 -0.0692461 -0.0692701
internal_weight=0 41.7958 32.1643 26.2211 19.5898 9.63146 6.71682 5.94324 17.0718 13.4711 11.151 8.62901 6.74806 3.60069 2.54902
internal_count=424 207 140 84 56 67 47 56 217 150 128 93 69 67 47
is_linear=0
shrinkage=0.1


Tree=52
num_leaves=19
num_cat=0
split_feature=0 2 3 2 2 0 0 0 2 2 3 0 1 3 2 2 0 2
split_gain=3.21528 2.85826 1.40092 1.22018 1.35101 3.16959 1.18285 0.71701 0.671596 0.54028 0.509618 0.501805 0.324341 0.111952 0.106622 0.000311809 1.57801e-05 4.11064e-07
threshold=15.789294158796153 80.83452782746447 41.500000000000007 31.745065150206418 46.144104424926354 14.141739745199628 14.469362208900755 13.030067682861974 60.672676800410038 59.083627980203318 35.500000000000007 16.325087277298795 1.0000000180025095e-35 45.500000000000007 21.981448858853291 27.103601424645358 13.183965038797767 102.09289631522036
decision_type=2 2 2 2 2 2 2 2 2 2 2 2 2 2 2 2 2 2
left_child=1 2 3 14 6 7 -5 8 -6 -9 11 -2 -7 -4 -1 -13 17 -3
right_child=10 16 13 4 5 12 -8 9 -10 -11 -12 15 -14 -15 -16 -17 -18 -19
leaf_value=0.031688434412634019 -0.0035075303408296263 -0.069735064529780857 0.054023740099452981 0.0051944276530180829 -0.045142151143029018 0.049319675559204551 -0.044482656141403426 0.033369496264084267 -2.8601943866110608e-05 -0.0057278700202625325 -0.10977594014059117 -0.070030669630189973 0.087853302269246425 0.03517031120263981 0.053763075967404851 -0.072073243045470345 -0.070185776181257223 -0.069811954698466391
leaf_weight=4.2069591209292394 1.7393495999276627 1.2617358043789857 6.5242634415626508 10.078641362488272 5.6293537244200724 4.9198568016290647 9.1397052556276304 6.9406615346670133 7.9742364510893822 7.202031210064888 1.7217996306717394 1.6442854702472689 3.9285888895392418 6.08901147544384 4.5594393461942673 1.3701151758432386 1.4268467947840688 1.5487459748983381
leaf_count=24 12 20 26 34 20 28 27 21 31 21 15 24 22 21 18 16 20 24
internal_value=0 0.0100502 0.0144397 0.00848607 0.00303844 0.0143133 -0.0184306 -0.00230644 -0.0186972 0.0134595 -0.0631625 -0.0462792 0.0664281 0.0449223 0.0431695 -0.0709591 -0.0699149 -0.0697774
internal_weight=0 81.4301 77.1927 64.5795 55.8131 36.5947 19.2183 27.7463 13.6036 14.1427 6.47555 4.75375 8.84845 12.6133 8.7664 3.0144 4.23733 2.81048
internal_count=424 357 293 246 204 143 61 93 51 42 67 52 50 47 42 40 64 44
is_linear=0
shrinkage=0.1


Tree=53
num_leaves=17
num_cat=0
split_feature=0 2 1 0 3 0 2 2 2 2 2 0 1 2 0 0
split_gain=10.2374 2.94179 1.18197 1.61077 0.65488 0.310177 0.210263 0.00802433 0.000638303 0.000373077 0.000240507 0.000414831 6.72257e-05 5.94403e-05 2.98329e-05 1.12227e-05
threshold=14.023735362560275 79.263605846346053 1.0000000180025095e-35 12.187887642543794 21.500000000000004 12.648403240866386 55.039812828918464 91.932817382021426 21.420548905659885 54.649576392135508 47.32369281995954 15.758312587585225 1.0000000180025095e-35 65.066796953887732 16.013129672387397 13.039849236333184
decision_type=2 2 2 2 2 2 2 2 2 2 2 2 2 2 2 2
left_child=1 2 5 -4 -5 -1 -7 -3 14 10 11 12 -10 -11 -2 -9
right_child=8 7 3 4 -6 6 -8 15 9 13 -12 -13 -14 -15 -16 -17
leaf_value=0.041966831603436977 -0.070075918264725603 0.079332604543864205 0.056982586823233816 -0.0017904301989392164 -0.043336902789287389 0.032040142898427215 0.0076713574615900754 0.072658248353631869 -0.072051541501109234 -0.069796698120503264 -0.0724218845119423 -0.069906222856137762 -0.071374783338666814 -0.070720202447330321 -0.069472117200332847 0.072948448680199326
leaf_weight=7.2977699190378216 1.4285264238715201 2.8576919883489591 3.0557672977447536 7.5764254182577115 7.5994772538542747 5.6811901926994315 9.3979250937700254 3.064239576458931 2.6762995496392232 1.399124559015035 2.4668032452464104 1.6947770603001115 3.250560574233532 1.3887255713343618 1.9155647680163381 2.3581470996141434
leaf_count=29 21 21 15 29 28 21 27 27 26 22 23 27 36 19 33 20
internal_value=0 0.0207202 0.00964348 -0.00925737 -0.0225952 0.025043 0.0168525 0.0750444 -0.070961 -0.0712807 -0.0715636 -0.0712859 -0.0716804 -0.0702567 -0.06973 0.0727845
internal_weight=0 48.8886 40.6086 18.2317 15.1759 22.3769 15.0791 8.28008 16.2204 12.8763 10.0884 7.62164 5.92686 2.78785 3.34409 5.42239
internal_count=424 217 149 72 57 77 48 68 207 153 112 89 62 41 54 47
is_linear=0
shrinkage=0.1


Tree=54
num_leaves=18
num_cat=0
split_feature=0 0 2 3 0 2 3 3 2 0 2 0 0 3 3 2 3
split_gain=9.47877 2.85712 2.07639 1.2846 0.861462 0.418805 0.302585 0.363151 0.00126893 0.00042136 0.000198054 0.000149087 8.20401e-05 6.54e-05 6.5273e-05 4.70089e-07 4.26426e-08
threshold=14.023735362560275 15.789294158796153 47.018837647864046 32.500000000000007 14.91157383674461 50.116001621641821 33.500000000000007 17.500000000000004 79.6151532545408 15.266283248866843 50.116001621641821 12.270575893016755 13.474731374479896 19.500000000000004 20.500000000000004 91.932817382021426 28.500000000000004
decision_type=2 2 2 2 2 2 2 2 2 2 2 2 2 2 2 2 2
left_child=8 2 3 4 -2 -4 7 -3 10 -7 14 -12 13 -13 -1 -10 -17
right_child=1 6 5 -5 -6 9 -8 -9 15 -11 11 12 -14 -15 -16 16 -18
